{"learner":{"attributes":{"scikit_learn":"{\"_estimator_type\": \"regressor\"}"},"feature_names":["pm25_3day_mean","temperature_2m_mean","precipitation_sum","wind_speed_10m_max","wind_direction_10m_dominant"],"feature_types":["float","float","float","float","float"],"gradient_booster":{"model":{"gbtree_model_param":{"num_parallel_tree":"1","num_trees":"100"},"iteration_indptr":[0,1,2,3,4,5,6,7,8,9,10,11,12,13,14,15,16,17,18,19,20,21,22,23,24,25,26,27,28,29,30,31,32,33,34,35,36,37,38,39,40,41,42,43,44,45,46,47,48,49,50,51,52,53,54,55,56,57,58,59,60,61,62,63,64,65,66,67,68,69,70,71,72,73,74,75,76,77,78,79,80,81,82,83,84,85,86,87,88,89,90,91,92,93,94,95,96,97,98,99,100],"tree_info":[0,0,0,0,0,0,0,0,0,0,0,0,0,0,0,0,0,0,0,0,0,0,0,0,0,0,0,0,0,0,0,0,0,0,0,0,0,0,0,0,0,0,0,0,0,0,0,0,0,0,0,0,0,0,0,0,0,0,0,0,0,0,0,0,0,0,0,0,0,0,0,0,0,0,0,0,0,0,0,0,0,0,0,0,0,0,0,0,0,0,0,0,0,0,0,0,0,0,0,0],"trees":[{"base_weights":[-6.99774E-8,-4.9098924E-1,2.22089E0,-2.380949E-2,-1.0315993E0,3.9433284E0,5.3133094E-1,-6.3902336E-1,4.4605204E-1,5.482579E-1,-1.114988E0,2.4926053E-1,4.3583903E0,1.6285169E0,-3.6425427E-1,-6.920222E-1,1.6327902E0,1.9481276E-1,1.0567083E0,-3.7001956E-1,9.539251E-1,-1.4868231E0,-9.5015514E-1,8.2174724E-1,-3.1801873E-1,2.6187913E0,5.5783954E0,3.8249276E0,9.93649E-1,-4.595642E-1,1.0604882E0,-1.077511E0,-4.4058895E-1,9.7798437E-1,3.299376E-1,-4.775055E-1,4.2343453E-1,2.085694E0,7.370493E-1,2.2270758E0,4.346629E-1,-1.0229788E0,-1.5795739E0,-5.0595975E-1,-1.1424111E0,1.287076E0,5.9375525E-3,3.4258065E0,1.1159259E0,1.0425809E1,4.0072446E0,2.5108383E0,1.9447323E0,1.5302274E0,9.39976E-3,-8.8379717E-1,5.992413E-2,-4.0316978E-1,-2.8524813E-1,1.1287736E-1,-1.8128857E-1,2.3498441E-1,-7.00156E-2,5.359844E-1,-1.7111132E-1,6.4597917E-1,1.0267722E-1,1.8944825E0,3.778472E-1,9.873108E-2,4.894219E-1,7.304805E-1,1.4698832E-1,-9.301756E-2,1.7810306E-1,-1.2061874E-1,-3.3002254E-1,-1.9861875E-1,-4.805566E-1,-1.8942705E-1,1.0235306E-1,-2.3608981E-1,-3.9385203E-1,8.69883E-2,4.214805E-1,9.898439E-2,-9.601561E-2,3.296045E-1,1.1965331E0,9.649845E-1,2.1114458E-1,3.3935783E0,7.559844E-1,6.326778E-1,1.4775178E0,2.2798245E-1,9.2172956E-1,1.2997854E-1,6.17705E-1,5.489813E-1,-1.7942186E-1,1.0840851E-1,-3.286444E-1,3.0657893E-1,-8.957811E-2],"categories":[],"categories_nodes":[],"categories_segments":[],"categories_sizes":[],"default_left":[0,0,0,0,0,0,0,0,0,0,0,0,0,0,0,0,0,0,0,0,0,0,0,0,0,0,0,0,0,0,0,0,0,0,0,0,0,0,0,0,0,0,0,0,0,0,0,0,0,0,0,0,0,0,0,0,0,0,0,0,0,0,0,0,0,0,0,0,0,0,0,0,0,0,0,0,0,0,0,0,0,0,0,0,0,0,0,0,0,0,0,0,0,0,0,0,0,0,0,0,0,0,0,0,0],"id":0,"left_children":[1,3,5,7,9,11,13,15,17,19,21,23,25,27,29,31,33,35,37,-1,39,41,43,45,-1,47,49,51,53,55,-1,57,59,-1,61,63,65,67,69,71,73,75,77,79,81,83,85,87,89,91,93,95,-1,97,99,101,103,-1,-1,-1,-1,-1,-1,-1,-1,-1,-1,-1,-1,-1,-1,-1,-1,-1,-1,-1,-1,-1,-1,-1,-1,-1,-1,-1,-1,-1,-1,-1,-1,-1,-1,-1,-1,-1,-1,-1,-1,-1,-1,-1,-1,-1,-1,-1,-1],"loss_changes":[1.6803572E3,3.1870874E2,8.0983984E2,1.9627132E2,7.768048E1,2.105044E2,1.4012573E2,3.6528572E1,5.8861176E1,2.2859356E1,3.2664856E1,1.2114654E1,2.4855884E2,8.54429E1,3.0983627E1,2.7439575E1,1.3764044E1,4.23178E1,3.530229E1,0E0,1.555945E1,5.6548157E0,3.2556885E1,4.168175E0,0E0,6.0457306E1,5.0657446E2,3.261461E1,2.6920086E1,1.724292E1,0E0,2.535614E0,2.3762604E1,0E0,1.4597008E0,1.573714E1,2.8049667E1,8.289609E1,3.1204967E1,1.3345032E0,2.434075E0,1.0416832E0,1.7810974E0,1.2863329E1,1.5322937E1,4.152565E-1,6.337206E-1,4.013507E1,1.50504265E1,9.058838E1,8.718237E1,8.481346E0,0E0,1.825E1,2.2107046E1,1.1729824E1,1.2721402E1,0E0,0E0,0E0,0E0,0E0,0E0,0E0,0E0,0E0,0E0,0E0,0E0,0E0,0E0,0E0,0E0,0E0,0E0,0E0,0E0,0E0,0E0,0E0,0E0,0E0,0E0,0E0,0E0,0E0,0E0,0E0,0E0,0E0,0E0,0E0,0E0,0E0,0E0,0E0,0E0,0E0,0E0,0E0,0E0,0E0,0E0,0E0,0E0],"parents":[2147483647,0,0,1,1,2,2,3,3,4,4,5,5,6,6,7,7,8,8,9,9,10,10,11,11,12,12,13,13,14,14,15,15,16,16,17,17,18,18,20,20,21,21,22,22,23,23,25,25,26,26,27,27,28,28,29,29,31,31,32,32,34,34,35,35,36,36,37,37,38,38,39,39,40,40,41,41,42,42,43,43,44,44,45,45,46,46,47,47,48,48,49,49,50,50,51,51,53,53,54,54,55,55,56,56],"right_children":[2,4,6,8,10,12,14,16,18,20,22,24,26,28,30,32,34,36,38,-1,40,42,44,46,-1,48,50,52,54,56,-1,58,60,-1,62,64,66,68,70,72,74,76,78,80,82,84,86,88,90,92,94,96,-1,98,100,102,104,-1,-1,-1,-1,-1,-1,-1,-1,-1,-1,-1,-1,-1,-1,-1,-1,-1,-1,-1,-1,-1,-1,-1,-1,-1,-1,-1,-1,-1,-1,-1,-1,-1,-1,-1,-1,-1,-1,-1,-1,-1,-1,-1,-1,-1,-1,-1,-1],"split_conditions":[3.4066665E0,2.385232E2,1.9840375E2,1.4766667E0,1.1090103E1,4.4470886E1,2.4266985E2,1.95665E1,2.4833333E0,1.2433333E0,1.0566666E0,9.000001E-1,5.4581666E0,1.4471821E1,1.9200003E1,1.04132835E2,1.9117262E2,8.789841E1,2.65E0,-3.7001956E-1,8.891344E0,2.5660745E2,1.5629971E1,3.3011578E1,-3.1801873E-1,2.7999997E0,9.483167E0,1.8764418E1,2.0929594E1,5.7066665E0,1.0604882E0,9.6666664E-1,2.8415E0,9.7798437E-1,2.1389418E1,9.449572E0,1.5E0,1.1298495E1,1.8020666E1,3.328001E2,2.5208739E2,6.7333335E-1,-4.191833E0,1.7178999E1,2.6185944E2,1.224E1,4.81025E0,3.8933332E0,1.3644166E0,1.9008492E2,1.3185249E1,3.8E0,1.9447323E0,2.0901848E2,2E-1,1.3830749E1,2.5248976E2,-4.0316978E-1,-2.8524813E-1,1.1287736E-1,-1.8128857E-1,2.3498441E-1,-7.00156E-2,5.359844E-1,-1.7111132E-1,6.4597917E-1,1.0267722E-1,1.8944825E0,3.778472E-1,9.873108E-2,4.894219E-1,7.304805E-1,1.4698832E-1,-9.301756E-2,1.7810306E-1,-1.2061874E-1,-3.3002254E-1,-1.9861875E-1,-4.805566E-1,-1.8942705E-1,1.0235306E-1,-2.3608981E-1,-3.9385203E-1,8.69883E-2,4.214805E-1,9.898439E-2,-9.601561E-2,3.296045E-1,1.1965331E0,9.649845E-1,2.1114458E-1,3.3935783E0,7.559844E-1,6.326778E-1,1.4775178E0,2.2798245E-1,9.2172956E-1,1.2997854E-1,6.17705E-1,5.489813E-1,-1.7942186E-1,1.0840851E-1,-3.286444E-1,3.0657893E-1,-8.957811E-2],"split_indices":[0,4,4,0,3,4,4,1,0,0,0,2,1,3,2,4,4,4,0,0,3,4,3,4,0,2,1,1,3,0,0,0,1,0,1,3,0,3,1,4,4,0,1,1,4,3,1,0,1,4,1,0,0,4,2,3,4,0,0,0,0,0,0,0,0,0,0,0,0,0,0,0,0,0,0,0,0,0,0,0,0,0,0,0,0,0,0,0,0,0,0,0,0,0,0,0,0,0,0,0,0,0,0,0,0],"split_type":[0,0,0,0,0,0,0,0,0,0,0,0,0,0,0,0,0,0,0,0,0,0,0,0,0,0,0,0,0,0,0,0,0,0,0,0,0,0,0,0,0,0,0,0,0,0,0,0,0,0,0,0,0,0,0,0,0,0,0,0,0,0,0,0,0,0,0,0,0,0,0,0,0,0,0,0,0,0,0,0,0,0,0,0,0,0,0,0,0,0,0,0,0,0,0,0,0,0,0,0,0,0,0,0,0],"sum_hessian":[1.539E3,1.261E3,2.78E2,6.77E2,5.84E2,1.37E2,1.41E2,2.93E2,3.84E2,2.9E1,5.55E2,1.4E1,1.23E2,6.3E1,7.8E1,2.87E2,6E0,2.73E2,1.11E2,5E0,2.4E1,1.68E2,3.87E2,1E1,4E0,5.2E1,7.1E1,1.3E1,5E1,7.7E1,1E0,1.12E2,1.75E2,2E0,4E0,6.9E1,2.04E2,2.5E1,8.6E1,6E0,1.8E1,3E1,1.38E2,1.18E2,2.69E2,6E0,4E0,3.3E1,1.9E1,1.6E1,5.5E1,1E1,3E0,3.2E1,1.8E1,4.2E1,3.5E1,3.3E1,7.9E1,2.9E1,1.46E2,2E0,2E0,2E0,6.7E1,8E0,1.96E2,3E0,2.2E1,6E1,2.6E1,5E0,1E0,3E0,1.5E1,4E0,2.6E1,4E0,1.34E2,1.03E2,1.5E1,8.9E1,1.8E2,1E0,5E0,2E0,2E0,7E0,2.6E1,2E0,1.7E1,1.4E1,2E0,1.9E1,3.6E1,3E0,7E0,1.1E1,2.1E1,4E0,1.4E1,6E0,3.6E1,9E0,2.6E1],"tree_param":{"num_deleted":"0","num_feature":"5","num_nodes":"105","size_leaf_vector":"1"}},{"base_weights":[1.138323E-2,-3.555128E-1,1.5481081E0,2.5332492E-2,-6.81827E-1,2.3426511E0,-4.0568367E-2,-1.7401706E-1,8.419122E-1,-9.456913E-1,-4.1984883E-1,2.183524E0,7.0708046E0,1.6988465E0,-2.9706636E-1,-6.317615E-1,1.14089146E-1,1.0573208E0,-4.6961583E-2,-3.3408487E-1,-9.837042E-1,6.6339396E-2,-6.332264E-1,2.4049375E0,-2.502245E-1,2.9864273E0,8.685978E-1,5.7208806E-1,1.2273093E0,2.4634019E-1,-5.6833977E-1,-8.134068E-1,-4.5504206E-1,-5.264183E-1,3.2507494E-1,8.484301E-1,3.4428055E0,4.0453804E-1,-6.7436486E-1,2.3893085E-1,-4.8296687E-1,-7.5069654E-1,-1.0802889E0,1.6843058E0,-4.9906567E-2,-1.4058396E-1,-7.2754025E-1,1.0367993E0,2.6883311E0,8.747892E-1,-1.125213E0,6.725084E-1,-2.816394E-1,1.9170811E0,-2.7820623E-1,-2.835576E-1,1.7390039E0,-8.9881736E-1,-1.7035325E-1,-1.3695966E-1,-3.1691003E-1,-1.8609466E-1,-4.0724233E-2,-2.6295564E-1,-3.5894047E-2,4.6867836E-2,3.1135273E-1,5.342073E-1,1.6025563E-1,1.3544899E-1,1.364709E0,-2.4342759E-1,2.4297911E-1,-2.3713832E-1,5.5575017E-2,1.183982E-1,-5.759826E-2,-1.0031737E-1,-2.0988712E-1,1.5027285E-1,-2.3080209E-1,-3.2847428E-1,1.01312324E-1,5.478604E-1,1.2494005E-1,-5.6020677E-2,1.7057899E-1,3.6720836E-1,-1.9600429E-1,-2.3290786E-1,-1.018445E-2,1.9246097E-1,7.9280454E-1,9.5605344E-1,4.380774E-1,-1.9032467E-2,1.1163607E0,-1.7914099E-1,-4.6015865E-1,1.5779093E-1,6.6163856E-1,1.01101376E-1,-1.7750746E-1,3.4964648E-1,-1.9498841E-1,1.2965015E0,2.2580092E-1,-1.16886616E-1,-3.2433832E-1,1.3412426E-1,-1.1923627E-1],"categories":[],"categories_nodes":[],"categories_segments":[],"categories_sizes":[],"default_left":[0,0,0,0,0,0,0,0,0,0,0,0,0,0,0,0,0,0,0,0,0,0,0,0,0,0,0,0,0,0,0,0,0,0,0,0,0,0,0,0,0,0,0,0,0,0,0,0,0,0,0,0,0,0,0,0,0,0,0,0,0,0,0,0,0,0,0,0,0,0,0,0,0,0,0,0,0,0,0,0,0,0,0,0,0,0,0,0,0,0,0,0,0,0,0,0,0,0,0,0,0,0,0,0,0,0,0,0,0,0,0],"id":1,"left_children":[1,3,5,7,9,11,13,15,17,19,21,23,25,27,29,31,33,35,37,39,41,43,45,47,49,-1,51,53,-1,55,57,59,61,63,65,67,69,71,73,75,77,79,81,83,85,87,89,91,93,95,97,-1,-1,99,101,103,105,107,109,-1,-1,-1,-1,-1,-1,-1,-1,-1,-1,-1,-1,-1,-1,-1,-1,-1,-1,-1,-1,-1,-1,-1,-1,-1,-1,-1,-1,-1,-1,-1,-1,-1,-1,-1,-1,-1,-1,-1,-1,-1,-1,-1,-1,-1,-1,-1,-1,-1,-1,-1,-1],"loss_changes":[8.688305E2,1.5461566E2,3.7498987E2,9.374777E1,4.5917816E1,1.335315E2,4.512032E1,6.1132057E1,2.1685883E1,7.413269E0,3.5106686E1,1.0460272E2,9.867462E1,3.269995E1,1.311224E1,5.3758087E0,3.8685448E1,4.2424843E1,6.78807E0,1.9069419E0,6.2330933E0,1.9644592E1,1.0816528E1,6.583942E1,1.7718683E1,0E0,9.549686E0,1.1969744E1,0E0,2.4221884E1,7.6068954E0,7.06118E0,4.82349E0,1.0006298E1,2.5713102E1,2.3950207E1,2.1109535E1,7.558388E0,1.144412E0,4.113119E-1,3.1328106E-1,2.6021576E0,4.9115295E0,4.987526E-1,8.399837E0,2.8088926E1,6.6441956E0,1.8616474E1,8.4729126E1,2.1600815E1,1.242054E0,0E0,0E0,4.4467163E-1,1.5494194E0,1.29690485E1,1.7126192E1,2.5493793E0,4.103851E0,0E0,0E0,0E0,0E0,0E0,0E0,0E0,0E0,0E0,0E0,0E0,0E0,0E0,0E0,0E0,0E0,0E0,0E0,0E0,0E0,0E0,0E0,0E0,0E0,0E0,0E0,0E0,0E0,0E0,0E0,0E0,0E0,0E0,0E0,0E0,0E0,0E0,0E0,0E0,0E0,0E0,0E0,0E0,0E0,0E0,0E0,0E0,0E0,0E0,0E0,0E0,0E0],"parents":[2147483647,0,0,1,1,2,2,3,3,4,4,5,5,6,6,7,7,8,8,9,9,10,10,11,11,12,12,13,13,14,14,15,15,16,16,17,17,18,18,19,19,20,20,21,21,22,22,23,23,24,24,26,26,27,27,29,29,30,30,31,31,32,32,33,33,34,34,35,35,36,36,37,37,38,38,39,39,40,40,41,41,42,42,43,43,44,44,45,45,46,46,47,47,48,48,49,49,50,50,53,53,54,54,55,55,56,56,57,57,58,58],"right_children":[2,4,6,8,10,12,14,16,18,20,22,24,26,28,30,32,34,36,38,40,42,44,46,48,50,-1,52,54,-1,56,58,60,62,64,66,68,70,72,74,76,78,80,82,84,86,88,90,92,94,96,98,-1,-1,100,102,104,106,108,110,-1,-1,-1,-1,-1,-1,-1,-1,-1,-1,-1,-1,-1,-1,-1,-1,-1,-1,-1,-1,-1,-1,-1,-1,-1,-1,-1,-1,-1,-1,-1,-1,-1,-1,-1,-1,-1,-1,-1,-1,-1,-1,-1,-1,-1,-1,-1,-1,-1,-1,-1,-1],"split_conditions":[3.31E0,2.230126E2,2.2767969E2,2.2733333E0,1.3933333E0,1.1866667E1,1.2783802E1,9.768213E1,1.8899143E1,-3.8605835E0,1.4904173E1,2.4192429E1,1.5540018E2,1.8720667E1,2.555779E2,4.4470886E1,1.09E0,1.8014393E1,1.6166637E2,2.5208739E2,2.5660745E2,8.891344E0,2.3624232E2,8.789841E1,3.7999997E0,2.9864273E0,2.4060833E0,4.27E0,1.2273093E0,6.016667E0,6.383167E0,1.2081667E0,1.5166667E0,1.9117262E2,5.5000005E0,1.4727498E0,2.4466667E0,2.2038551E1,1.7047749E1,1.0833334E0,1.2666667E0,1.097262E1,1.06E1,3.328001E2,1.7178999E1,3.6852505E0,2.916889E1,8E0,1.9840375E2,2.7E0,1.2737332E1,6.725084E-1,-2.816394E-1,3.6266665E0,9.36E0,1.7498335E0,6.1666665E0,1.665754E1,8.96025E0,-1.3695966E-1,-3.1691003E-1,-1.8609466E-1,-4.0724233E-2,-2.6295564E-1,-3.5894047E-2,4.6867836E-2,3.1135273E-1,5.342073E-1,1.6025563E-1,1.3544899E-1,1.364709E0,-2.4342759E-1,2.4297911E-1,-2.3713832E-1,5.5575017E-2,1.183982E-1,-5.759826E-2,-1.0031737E-1,-2.0988712E-1,1.5027285E-1,-2.3080209E-1,-3.2847428E-1,1.01312324E-1,5.478604E-1,1.2494005E-1,-5.6020677E-2,1.7057899E-1,3.6720836E-1,-1.9600429E-1,-2.3290786E-1,-1.018445E-2,1.9246097E-1,7.9280454E-1,9.5605344E-1,4.380774E-1,-1.9032467E-2,1.1163607E0,-1.7914099E-1,-4.6015865E-1,1.5779093E-1,6.6163856E-1,1.01101376E-1,-1.7750746E-1,3.4964648E-1,-1.9498841E-1,1.2965015E0,2.2580092E-1,-1.16886616E-1,-3.2433832E-1,1.3412426E-1,-1.1923627E-1],"split_indices":[0,4,4,0,0,0,3,4,3,1,3,3,4,1,4,4,0,3,4,4,4,3,4,4,2,0,1,0,0,0,1,1,0,4,2,1,0,4,1,0,0,3,2,4,1,1,3,0,4,2,1,0,0,0,3,1,0,3,1,0,0,0,0,0,0,0,0,0,0,0,0,0,0,0,0,0,0,0,0,0,0,0,0,0,0,0,0,0,0,0,0,0,0,0,0,0,0,0,0,0,0,0,0,0,0,0,0,0,0,0,0],"split_type":[0,0,0,0,0,0,0,0,0,0,0,0,0,0,0,0,0,0,0,0,0,0,0,0,0,0,0,0,0,0,0,0,0,0,0,0,0,0,0,0,0,0,0,0,0,0,0,0,0,0,0,0,0,0,0,0,0,0,0,0,0,0,0,0,0,0,0,0,0,0,0,0,0,0,0,0,0,0,0,0,0,0,0,0,0,0,0,0,0,0,0,0,0,0,0,0,0,0,0,0,0,0,0,0,0,0,0,0,0,0,0],"sum_hessian":[1.539E3,1.243E3,2.96E2,5.74E2,6.69E2,1.97E2,9.9E1,4.62E2,1.12E2,3.32E2,3.37E2,1.92E2,5E0,1.2E1,8.7E1,1.78E2,2.84E2,9E1,2.2E1,2E1,3.12E2,1.03E2,2.34E2,1.76E2,1.6E1,3E0,2E0,9E0,3E0,2.9E1,5.8E1,8.6E1,9.2E1,7E1,2.14E2,8.4E1,6E0,1.3E1,9E0,4E0,1.6E1,9.4E1,2.18E2,6E0,9.7E1,3.8E1,1.96E2,3.1E1,1.45E2,7E0,9E0,1E0,1E0,3E0,6E0,2.2E1,7E0,3.1E1,2.7E1,3.6E1,5E1,6E1,3.2E1,3.7E1,3.3E1,1.74E2,4E1,2E1,6.4E1,2E0,4E0,3E0,1E1,8E0,1E0,3E0,1E0,1.1E1,5E0,1E0,9.3E1,2.16E2,2E0,5E0,1E0,8E1,1.7E1,1E1,2.8E1,1.83E2,1.3E1,2.6E1,5E0,1.02E2,4.3E1,6E0,1E0,5E0,4E0,1E0,2E0,2E0,4E0,4E0,1.8E1,1E0,6E0,9E0,2.2E1,7E0,2E1],"tree_param":{"num_deleted":"0","num_feature":"5","num_nodes":"111","size_leaf_vector":"1"}},{"base_weights":[1.5101613E-2,-2.3413484E-1,1.2317364E0,6.075787E-2,-4.720508E-1,2.1957355E0,2.9451543E-1,3.1176766E-2,3.4090197E0,3.818448E-2,-5.361951E-1,1.1189153E0,2.956127E0,7.828386E-1,-2.6824304E-1,-3.3467692E-1,2.5328797E-1,2.627729E-1,1.146996E0,2.6661253E-1,-4.7502175E-1,-3.4243923E-1,-7.435283E-1,2.2667763E0,6.3179815E-1,6.519389E0,1.8793205E0,1.1879493E0,-7.6880716E-2,-4.8120457E-1,1.2560178E0,-4.937859E-1,6.592726E-2,5.530239E-1,-3.301752E-2,3.487082E-1,1.5600272E-1,-1.6756777E-1,-5.632931E-1,-5.4928434E-1,-1.9414042E-1,-7.569975E-1,4.5254254E-1,9.5256317E-1,4.298371E0,1.5551876E0,3.1354997E-1,-3.6145642E-1,7.077458E0,3.5646605E-1,2.4872267E0,8.031459E-1,1.9314098E0,1.0061522E0,-4.93789E-1,-1.7091861E-1,-6.922851E-1,3.3061564E-1,6.2962985E-1,-1.7678234E-1,-7.4818894E-2,-4.4478554E-2,2.072962E-1,3.1030163E-1,9.223711E-3,5.31813E-1,-3.461292E-2,1.7212981E-1,8.0320975E-3,5.089301E-2,-1.0091428E-1,-1.9384545E-1,-6.0617805E-2,-2.461723E-1,-1.414056E-1,2.253423E-2,-1.2538572E-1,-1.8524066E-1,-2.5977284E-1,1.9002272E-2,1.6834883E-1,-2.8514722E-1,4.4432226E-1,1.5637734E0,-4.0899612E-2,1.625871E-1,1.1216221E0,-1.10498644E-1,2.2907881E-1,-1.8481737E-1,2.289429E0,1.6141788E0,-7.6672986E-2,2.350661E-2,9.425452E-1,4.4999716E-1,1.2139662E-1,-7.780865E-2,7.3707706E-1,6.013725E-1,-7.314262E-2,-7.1167395E-2,-2.902141E-1,-1.2413359E-1,2.5041154E-1,-1.07403E-1,-2.852875E-1,-3.4346092E-2,1.9965392E-1],"categories":[],"categories_nodes":[],"categories_segments":[],"categories_sizes":[],"default_left":[0,0,0,0,0,0,0,0,0,0,0,0,0,0,0,0,0,0,0,0,0,0,0,0,0,0,0,0,0,0,0,0,0,0,0,0,0,0,0,0,0,0,0,0,0,0,0,0,0,0,0,0,0,0,0,0,0,0,0,0,0,0,0,0,0,0,0,0,0,0,0,0,0,0,0,0,0,0,0,0,0,0,0,0,0,0,0,0,0,0,0,0,0,0,0,0,0,0,0,0,0,0,0,0,0,0,0,0,0],"id":2,"left_children":[1,3,5,7,9,11,13,15,17,19,21,23,25,27,29,31,33,-1,-1,35,37,39,41,43,45,47,49,51,53,55,57,59,61,63,65,-1,67,69,71,73,75,77,79,81,83,85,87,-1,89,91,93,95,97,99,101,103,105,107,-1,-1,-1,-1,-1,-1,-1,-1,-1,-1,-1,-1,-1,-1,-1,-1,-1,-1,-1,-1,-1,-1,-1,-1,-1,-1,-1,-1,-1,-1,-1,-1,-1,-1,-1,-1,-1,-1,-1,-1,-1,-1,-1,-1,-1,-1,-1,-1,-1,-1,-1],"loss_changes":[4.6726218E2,8.97629E1,2.3606503E2,5.654762E1,2.3192383E1,1.0231824E2,3.7034267E1,4.6240562E1,1.8984566E0,9.505103E0,2.5013596E1,2.932071E1,2.755188E2,2.5167595E1,2.1054762E1,1.3736591E1,3.0397137E1,0E0,0E0,5.3670673E0,5.84095E-1,9.924049E0,5.223938E0,3.8624702E1,1.1267051E1,8.180847E1,5.3732803E1,1.2467018E1,1.1333435E1,3.5494146E0,5.545165E0,3.4468498E0,8.403071E0,4.3456985E1,2.7271149E1,0E0,2.7379832E0,4.555444E-1,4.3813276E-1,2.4885712E0,1.1601772E1,4.024231E0,1.3355619E-1,1.2471379E1,2.5036049E1,2.0098183E1,9.794436E0,0E0,7.289325E1,5.6724827E1,6.598044E1,8.834341E0,1.9057724E1,9.224658E0,1.9576335E0,6.206801E0,2.5129929E0,8.2151115E-1,0E0,0E0,0E0,0E0,0E0,0E0,0E0,0E0,0E0,0E0,0E0,0E0,0E0,0E0,0E0,0E0,0E0,0E0,0E0,0E0,0E0,0E0,0E0,0E0,0E0,0E0,0E0,0E0,0E0,0E0,0E0,0E0,0E0,0E0,0E0,0E0,0E0,0E0,0E0,0E0,0E0,0E0,0E0,0E0,0E0,0E0,0E0,0E0,0E0,0E0,0E0],"parents":[2147483647,0,0,1,1,2,2,3,3,4,4,5,5,6,6,7,7,8,8,9,9,10,10,11,11,12,12,13,13,14,14,15,15,16,16,19,19,20,20,21,21,22,22,23,23,24,24,25,25,26,26,27,27,28,28,29,29,30,30,31,31,32,32,33,33,34,34,36,36,37,37,38,38,39,39,40,40,41,41,42,42,43,43,44,44,45,45,46,46,48,48,49,49,50,50,51,51,52,52,53,53,54,54,55,55,56,56,57,57],"right_children":[2,4,6,8,10,12,14,16,18,20,22,24,26,28,30,32,34,-1,-1,36,38,40,42,44,46,48,50,52,54,56,58,60,62,64,66,-1,68,70,72,74,76,78,80,82,84,86,88,-1,90,92,94,96,98,100,102,104,106,108,-1,-1,-1,-1,-1,-1,-1,-1,-1,-1,-1,-1,-1,-1,-1,-1,-1,-1,-1,-1,-1,-1,-1,-1,-1,-1,-1,-1,-1,-1,-1,-1,-1,-1,-1,-1,-1,-1,-1,-1,-1,-1,-1,-1,-1,-1,-1,-1,-1,-1,-1],"split_conditions":[3.5066667E0,2.181292E2,1.9840375E2,2.2774834E1,-3.1689165E0,5.4581666E0,2.5248976E2,9.768213E1,9.768213E1,1.6965895E1,2.694543E2,1E-1,9.570668E0,2.0192118E1,1.8764418E1,1.9666667E0,1.0364417E1,2.627729E-1,1.146996E0,9.36E0,1.7673029E1,1.3766667E0,1.9224833E1,6.6266665E0,1.3644166E0,9.768213E1,1.3185249E1,6.016667E0,2E-1,1.675064E1,2.2E0,1.7000003E0,1.5000002E0,1.7873554E1,1.0971323E2,3.487082E-1,-8.495997E0,3.0697516E2,2.3090569E1,1.5349684E1,3E-1,1.7447933E1,2.0308168E1,1.0239453E1,2.4060833E0,1.20695206E2,4.8433332E0,-3.6145642E-1,3.65E0,3.6266665E0,4.714373E1,1.4471821E1,1.2682018E1,2.3545401E2,8.233334E0,7.58E0,2.7605304E2,1.9862333E1,6.2962985E-1,-1.7678234E-1,-7.4818894E-2,-4.4478554E-2,2.072962E-1,3.1030163E-1,9.223711E-3,5.31813E-1,-3.461292E-2,1.7212981E-1,8.0320975E-3,5.089301E-2,-1.0091428E-1,-1.9384545E-1,-6.0617805E-2,-2.461723E-1,-1.414056E-1,2.253423E-2,-1.2538572E-1,-1.8524066E-1,-2.5977284E-1,1.9002272E-2,1.6834883E-1,-2.8514722E-1,4.4432226E-1,1.5637734E0,-4.0899612E-2,1.625871E-1,1.1216221E0,-1.10498644E-1,2.2907881E-1,-1.8481737E-1,2.289429E0,1.6141788E0,-7.6672986E-2,2.350661E-2,9.425452E-1,4.4999716E-1,1.2139662E-1,-7.780865E-2,7.3707706E-1,6.013725E-1,-7.314262E-2,-7.1167395E-2,-2.902141E-1,-1.2413359E-1,2.5041154E-1,-1.07403E-1,-2.852875E-1,-3.4346092E-2,1.9965392E-1],"split_indices":[0,4,4,1,1,1,4,4,4,3,4,2,1,3,1,0,1,0,0,3,3,0,1,0,1,4,1,0,2,3,2,2,2,3,4,0,1,4,3,3,2,3,1,3,1,4,0,0,0,0,4,3,3,4,0,0,4,1,0,0,0,0,0,0,0,0,0,0,0,0,0,0,0,0,0,0,0,0,0,0,0,0,0,0,0,0,0,0,0,0,0,0,0,0,0,0,0,0,0,0,0,0,0,0,0,0,0,0,0],"split_type":[0,0,0,0,0,0,0,0,0,0,0,0,0,0,0,0,0,0,0,0,0,0,0,0,0,0,0,0,0,0,0,0,0,0,0,0,0,0,0,0,0,0,0,0,0,0,0,0,0,0,0,0,0,0,0,0,0,0,0,0,0,0,0,0,0,0,0,0,0,0,0,0,0,0,0,0,0,0,0,0,0,0,0,0,0,0,0,0,0,0,0,0,0,0,0,0,0,0,0,0,0,0,0,0,0,0,0,0,0],"sum_hessian":[1.539E3,1.278E3,2.61E2,5.71E2,7.07E2,1.28E2,1.33E2,5.67E2,4E0,7.9E1,6.28E2,5.4E1,7.4E1,7.1E1,6.2E1,2.14E2,3.53E2,1E0,3E0,5.5E1,2.4E1,3.26E2,3.02E2,1.5E1,3.9E1,1.6E1,5.8E1,4.8E1,2.3E1,5.5E1,7E0,1.53E2,6.1E1,1.72E2,1.81E2,5E0,5E1,6E0,1.8E1,1.35E2,1.91E2,2.99E2,3E0,1E1,5E0,9E0,3E1,1E0,1.5E1,1.7E1,4.1E1,3.3E1,1.5E1,6E0,1.7E1,2.3E1,3.2E1,4E0,3E0,1.09E2,4.4E1,4.6E1,1.5E1,8.9E1,8.3E1,7E0,1.74E2,1.1E1,3.9E1,2E0,4E0,1.4E1,4E0,2.8E1,1.07E2,8.7E1,1.04E2,1.34E2,1.65E2,1E0,2E0,2E0,8E0,4E0,1E0,7E0,2E0,1.2E1,1.8E1,1E0,1.4E1,1E0,1.6E1,9E0,3.2E1,1.1E1,2.2E1,3E0,1.2E1,3E0,3E0,1.2E1,5E0,1.9E1,4E0,1.5E1,1.7E1,2E0,2E0],"tree_param":{"num_deleted":"0","num_feature":"5","num_nodes":"109","size_leaf_vector":"1"}},{"base_weights":[1.7630622E-2,-1.6263244E-1,8.975498E-1,-3.1179035E-1,1.3053544E-1,1.5938486E0,2.2053422E-1,-1.772515E-1,-5.093555E-1,9.25588E-2,2.1317272E0,2.6580086E0,1.0495644E0,1.3352147E0,6.880798E-2,-2.0939791E-1,8.2031935E-1,-6.1770517E-2,-5.6163985E-1,8.111687E-1,-3.2471854E-3,2.7843606E-1,2.6682675E0,-6.224575E-1,3.1060293E0,1.7335824E0,5.087193E-1,5.9922713E-1,3.3933706E0,5.4232395E-1,-1.9651663E-1,-4.4116282E-1,-1.0015466E-1,2.995496E-1,6.923224E-1,-1.8441312E-1,4.16895E-1,-5.7599825E-1,4.2080683E-1,5.825524E-1,4.1986403E0,1.8715413E-1,-1.7720145E-1,3.2724273E-1,1.0068911E0,2.4087556E-1,-3.343029E-1,1.0220605E0,3.9171994E0,1.4788935E-1,3.4872475E0,1.5993239E0,8.748191E-2,1.5883101E0,-4.7545972E-1,1.1960922E0,2.4188419E-1,2.7267584E-1,1.890132E0,-6.93142E-2,-5.811707E-1,-1.386106E-1,4.2224142E-1,-5.1069777E-2,9.986429E-2,7.611555E-3,5.384524E-1,-1.0335158E-1,8.168362E-3,-1.7786066E-1,1.229493E-2,-1.0513109E-1,3.155345E-1,3.1909072E-1,4.017192E-3,6.524849E-2,1.8241397E0,7.16472E-2,-3.3718416E-1,3.020605E-2,-1.0922958E-1,-1.04285575E-1,2.1267958E-1,-6.613153E-2,5.0125945E-1,-8.4295414E-2,1.3978606E0,2.1207364E-1,-4.102459E-1,5.6925195E-1,2.1723218E0,-1.7236012E-1,2.5976628E-1,6.662271E-2,5.3370094E-1,-2.4536458E-1,7.611914E-2,2.9784253E-2,6.6141766E-1,1.1187325E0,-1.2641309E-1,-9.914509E-2,9.759841E-2,-1.2168806E-1,-2.0957924E-1],"categories":[],"categories_nodes":[],"categories_segments":[],"categories_sizes":[],"default_left":[0,0,0,0,0,0,0,0,0,0,0,0,0,0,0,0,0,0,0,0,0,0,0,0,0,0,0,0,0,0,0,0,0,0,0,0,0,0,0,0,0,0,0,0,0,0,0,0,0,0,0,0,0,0,0,0,0,0,0,0,0,0,0,0,0,0,0,0,0,0,0,0,0,0,0,0,0,0,0,0,0,0,0,0,0,0,0,0,0,0,0,0,0,0,0,0,0,0,0,0,0,0,0,0,0],"id":3,"left_children":[1,3,5,7,9,11,13,15,17,19,21,23,25,27,29,31,33,35,37,39,41,-1,43,45,47,49,51,53,55,57,59,61,63,65,-1,67,-1,69,71,73,75,77,79,-1,-1,81,-1,83,85,87,89,-1,91,93,95,-1,-1,97,99,101,103,-1,-1,-1,-1,-1,-1,-1,-1,-1,-1,-1,-1,-1,-1,-1,-1,-1,-1,-1,-1,-1,-1,-1,-1,-1,-1,-1,-1,-1,-1,-1,-1,-1,-1,-1,-1,-1,-1,-1,-1,-1,-1,-1,-1],"loss_changes":[2.4441605E2,5.5969196E1,1.2315665E2,2.2449722E1,3.2634056E1,7.1927765E1,2.2571047E1,1.6398338E1,7.9920807E0,2.9262663E1,2.6897964E0,6.5131165E1,3.130355E1,2.2203037E1,1.5057194E1,1.2387325E1,1.1702385E1,6.84249E0,4.573036E0,3.627564E1,1.2486705E1,0E0,1.7656555E0,2.8163836E0,6.0233643E1,1.05153694E2,1.01101555E2,1.4573585E1,2.9281998E0,1.5112265E1,3.7272446E0,6.708233E0,1.0222656E1,5.284146E0,0E0,1.1952522E0,0E0,3.1781769E0,2.8017604E0,1.31288395E1,2.115298E1,1.24624195E1,1.0268154E1,0E0,0E0,1.0727832E0,0E0,1.0041986E1,8.5453735E1,1.8756409E1,9.367699E1,0E0,2.471737E1,1.428648E0,1.9553578E0,0E0,0E0,1.21764E1,3.1327026E1,6.188556E0,1.0828686E-1,0E0,0E0,0E0,0E0,0E0,0E0,0E0,0E0,0E0,0E0,0E0,0E0,0E0,0E0,0E0,0E0,0E0,0E0,0E0,0E0,0E0,0E0,0E0,0E0,0E0,0E0,0E0,0E0,0E0,0E0,0E0,0E0,0E0,0E0,0E0,0E0,0E0,0E0,0E0,0E0,0E0,0E0,0E0,0E0],"parents":[2147483647,0,0,1,1,2,2,3,3,4,4,5,5,6,6,7,7,8,8,9,9,10,10,11,11,12,12,13,13,14,14,15,15,16,16,17,17,18,18,19,19,20,20,22,22,23,23,24,24,25,25,26,26,27,27,28,28,29,29,30,30,31,31,32,32,33,33,35,35,37,37,38,38,39,39,40,40,41,41,42,42,45,45,47,47,48,48,49,49,50,50,52,52,53,53,54,54,57,57,58,58,59,59,60,60],"right_children":[2,4,6,8,10,12,14,16,18,20,22,24,26,28,30,32,34,36,38,40,42,-1,44,46,48,50,52,54,56,58,60,62,64,66,-1,68,-1,70,72,74,76,78,80,-1,-1,82,-1,84,86,88,90,-1,92,94,96,-1,-1,98,100,102,104,-1,-1,-1,-1,-1,-1,-1,-1,-1,-1,-1,-1,-1,-1,-1,-1,-1,-1,-1,-1,-1,-1,-1,-1,-1,-1,-1,-1,-1,-1,-1,-1,-1,-1,-1,-1,-1,-1,-1,-1,-1,-1,-1,-1],"split_conditions":[3.5066667E0,1.9266666E0,1.9840375E2,2.5420792E2,2.2337334E1,4E-1,1.2879752E1,1.95665E1,-3.6876667E0,1.1298495E1,2.2774834E1,1.0239453E1,1.3918175E2,1.2682018E1,2.3545401E2,1.0566666E0,4E-1,1.8566667E0,1.2E1,1.1165805E1,2.1737587E2,2.7843606E-1,2.5333333E0,1.4857056E2,7.3901115E1,1.0128479E2,3.7333333E0,4.72E0,1.8993586E1,2.2694003E2,2.2725668E1,1.48E1,5.5000005E0,1.8175545E1,6.923224E-1,1E-1,4.16895E-1,3.544895E2,2.0748334E0,9.585739E0,2.0933332E0,3.4433334E0,1.6327497E1,3.2724273E-1,1.0068911E0,3.6266665E0,-3.343029E-1,5.243584E0,3.65E0,1.8888851E1,3.5E0,1.5993239E0,1.7108224E2,3.6266665E0,8.000001E-1,1.1960922E0,2.4188419E-1,2.0308168E1,6.1852493E0,1.7533146E1,5.1066666E0,-1.386106E-1,4.2224142E-1,-5.1069777E-2,9.986429E-2,7.611555E-3,5.384524E-1,-1.0335158E-1,8.168362E-3,-1.7786066E-1,1.229493E-2,-1.0513109E-1,3.155345E-1,3.1909072E-1,4.017192E-3,6.524849E-2,1.8241397E0,7.16472E-2,-3.3718416E-1,3.020605E-2,-1.0922958E-1,-1.04285575E-1,2.1267958E-1,-6.613153E-2,5.0125945E-1,-8.4295414E-2,1.3978606E0,2.1207364E-1,-4.102459E-1,5.6925195E-1,2.1723218E0,-1.7236012E-1,2.5976628E-1,6.662271E-2,5.3370094E-1,-2.4536458E-1,7.611914E-2,2.9784253E-2,6.6141766E-1,1.1187325E0,-1.2641309E-1,-9.914509E-2,9.759841E-2,-1.2168806E-1,-2.0957924E-1],"split_indices":[0,0,4,4,1,2,3,1,1,3,1,3,4,3,4,0,2,0,2,3,4,0,0,4,4,4,0,0,1,4,3,2,2,3,0,2,0,4,1,3,0,0,3,0,0,0,0,1,0,3,2,0,4,0,2,0,0,1,1,3,0,0,0,0,0,0,0,0,0,0,0,0,0,0,0,0,0,0,0,0,0,0,0,0,0,0,0,0,0,0,0,0,0,0,0,0,0,0,0,0,0,0,0,0,0],"split_type":[0,0,0,0,0,0,0,0,0,0,0,0,0,0,0,0,0,0,0,0,0,0,0,0,0,0,0,0,0,0,0,0,0,0,0,0,0,0,0,0,0,0,0,0,0,0,0,0,0,0,0,0,0,0,0,0,0,0,0,0,0,0,0,0,0,0,0,0,0,0,0,0,0,0,0,0,0,0,0,0,0,0,0,0,0,0,0,0,0,0,0,0,0,0,0,0,0,0,0,0,0,0,0,0,0],"sum_hessian":[1.539E3,1.278E3,2.61E2,8.47E2,4.31E2,1.28E2,1.33E2,5.05E2,3.42E2,4.24E2,7E0,4.2E1,8.6E1,1.5E1,1.18E2,4.9E2,1.5E1,3.6E1,3.06E2,4.9E1,3.75E2,3E0,4E0,5E0,3.7E1,3.7E1,4.9E1,1.2E1,3E0,4.2E1,7.6E1,1.56E2,3.34E2,1.2E1,3E0,3.4E1,2E0,3.02E2,4E0,4.7E1,2E0,1.79E2,1.96E2,2E0,2E0,2E0,3E0,1.1E1,2.6E1,2E1,1.7E1,3E0,4.6E1,6E0,6E0,2E0,1E0,3.6E1,6E0,5.8E1,1.8E1,1.55E2,1E0,2.88E2,4.6E1,1.1E1,1E0,1.9E1,1.5E1,2.94E2,8E0,2E0,2E0,2.5E1,2.2E1,1E0,1E0,1.73E2,6E0,7.9E1,1.17E2,1E0,1E0,4E0,7E0,4E0,2.2E1,1.5E1,5E0,1.3E1,4E0,2.5E1,2.1E1,1E0,5E0,4E0,2E0,3.4E1,2E0,3E0,3E0,3.5E1,2.3E1,9E0,9E0],"tree_param":{"num_deleted":"0","num_feature":"5","num_nodes":"105","size_leaf_vector":"1"}},{"base_weights":[2.1685941E-2,-1.096067E-1,6.6253173E-1,-1.4638704E-1,5.0900805E-1,1.2294226E0,1.9663067E-1,-3.3031875E-1,-4.467071E-2,3.4656677E-1,2.2381015E0,3.7140587E-1,1.7532493E0,1.1639274E0,5.906839E-2,-5.254817E-1,-2.8212276E-1,4.9293754E-1,-9.678084E-2,-4.3442164E-2,8.9134496E-1,1.1630273E-2,8.0106443E-1,6.882528E-1,-4.8584047E-1,4.218494E0,1.0429534E0,6.6741866E-1,2.7348537E0,2.4213042E-2,6.728546E-1,-9.446694E-2,-6.103351E-1,2.2877188E0,-3.1118453E-1,3.213926E-1,2.624434E0,2.6452385E-2,-2.4829768E-1,2.6773473E-2,-4.172778E-1,6.133943E-1,1.8082651E0,1.5645085E-1,1.3514386E0,3.3885077E-1,-7.145776E-1,6.92818E0,1.899864E0,1.7513249E0,4.1267267E-1,1.3900309E0,-3.569997E-1,9.5687383E-1,2.0560156E-1,2.315741E-1,-2.345036E-1,-9.428576E-2,2.6687118E-1,-2.0718852E-1,-1.12521164E-1,1.5683122E0,-1.3045391E-1,-6.40266E-2,-1.2553008E-1,6.457348E-2,7.330089E-1,1.5505186E0,2.0890354E-1,2.4289931E-3,5.428572E-1,-8.395249E-2,8.842E-2,-5.2924916E-2,1.20664105E-1,2.6481557E-1,7.180169E-2,2.0958467E-1,8.0551285E-1,1.2765193E-1,-2.2074513E-1,7.601887E-1,1.520342E-1,-3.0968067E-1,1.7477573E-1,2.3027318E0,3.663942E-1,-3.7368453E-1,1.0277615E0,2.0899788E-1,1.2507218E0,-9.50376E-2,7.921997E-1,1.6617374E-1,6.8901026E-1,-1.8647707E-1,6.08953E-2,1.7491119E-1,-8.045803E-2,-1.5418747E-1,-1.7163541E-2],"categories":[],"categories_nodes":[],"categories_segments":[],"categories_sizes":[],"default_left":[0,0,0,0,0,0,0,0,0,0,0,0,0,0,0,0,0,0,0,0,0,0,0,0,0,0,0,0,0,0,0,0,0,0,0,0,0,0,0,0,0,0,0,0,0,0,0,0,0,0,0,0,0,0,0,0,0,0,0,0,0,0,0,0,0,0,0,0,0,0,0,0,0,0,0,0,0,0,0,0,0,0,0,0,0,0,0,0,0,0,0,0,0,0,0,0,0,0,0,0,0],"id":4,"left_children":[1,3,5,7,9,11,13,15,17,19,21,23,25,27,29,31,33,35,37,39,41,-1,-1,43,45,47,49,51,53,55,-1,57,59,61,63,65,67,69,71,73,-1,75,77,79,81,-1,83,85,87,89,91,93,95,-1,-1,97,99,-1,-1,-1,-1,-1,-1,-1,-1,-1,-1,-1,-1,-1,-1,-1,-1,-1,-1,-1,-1,-1,-1,-1,-1,-1,-1,-1,-1,-1,-1,-1,-1,-1,-1,-1,-1,-1,-1,-1,-1,-1,-1,-1,-1],"loss_changes":[1.2964566E2,2.9175426E1,6.8956406E1,2.2585548E1,1.9447432E1,5.2384186E1,1.9225464E1,3.8963585E0,2.1871262E1,1.4274102E1,5.59865E0,1.2828712E1,1.23427155E2,1.2214323E1,9.688595E0,3.0144806E0,2.6627285E1,2.4386198E1,1.3282295E1,3.8218174E0,6.0268593E0,0E0,0E0,1.1779806E1,5.610473E0,8.736154E1,2.5172703E1,1.1600098E1,1.5419254E0,6.86757E0,0E0,3.52423E0,1.0632782E0,3.4290485E1,3.517517E0,1.4114822E1,2.092593E1,1.2848084E1,5.546732E0,3.046097E0,0E0,2.1058006E0,3.9616833E0,5.114488E0,1.3698257E1,0E0,5.546554E0,2.0490326E1,5.2267567E1,6.594328E1,5.284429E1,5.550579E0,1.1633382E0,0E0,0E0,1.2627508E1,2.794661E0,0E0,0E0,0E0,0E0,0E0,0E0,0E0,0E0,0E0,0E0,0E0,0E0,0E0,0E0,0E0,0E0,0E0,0E0,0E0,0E0,0E0,0E0,0E0,0E0,0E0,0E0,0E0,0E0,0E0,0E0,0E0,0E0,0E0,0E0,0E0,0E0,0E0,0E0,0E0,0E0,0E0,0E0,0E0,0E0],"parents":[2147483647,0,0,1,1,2,2,3,3,4,4,5,5,6,6,7,7,8,8,9,9,10,10,11,11,12,12,13,13,14,14,15,15,16,16,17,17,18,18,19,19,20,20,23,23,24,24,25,25,26,26,27,27,28,28,29,29,31,31,32,32,33,33,34,34,35,35,36,36,37,37,38,38,39,39,41,41,42,42,43,43,44,44,46,46,47,47,48,48,49,49,50,50,51,51,52,52,55,55,56,56],"right_children":[2,4,6,8,10,12,14,16,18,20,22,24,26,28,30,32,34,36,38,40,42,-1,-1,44,46,48,50,52,54,56,-1,58,60,62,64,66,68,70,72,74,-1,76,78,80,82,-1,84,86,88,90,92,94,96,-1,-1,98,100,-1,-1,-1,-1,-1,-1,-1,-1,-1,-1,-1,-1,-1,-1,-1,-1,-1,-1,-1,-1,-1,-1,-1,-1,-1,-1,-1,-1,-1,-1,-1,-1,-1,-1,-1,-1,-1,-1,-1,-1,-1,-1,-1,-1],"split_conditions":[3.5066667E0,1.9120665E1,1.8824821E2,1.2433333E0,5.0999994E0,5.243584E0,1.2879752E1,1.3830749E1,1.1298495E1,2.0881086E1,9.36E0,3.0060833E0,9.570668E0,1.2682018E1,2.1943583E1,1.9060832E0,1.3910169E1,4.4999995E0,2.385232E2,3.3433335E0,2.2774834E1,1.1630273E-2,8.0106443E-1,1.20695206E2,1.1090103E1,4E-1,1.3918175E2,4.8433332E0,1.8993586E1,2.555779E2,6.728546E-1,8.0608344E-1,2.5479802E2,6.7333335E-1,2.5660745E2,3.3766665E0,-3.3141664E-1,3.5728977E1,1.7178999E1,2.0399834E1,-4.172778E-1,1.9117262E2,2.5333333E0,6.346667E0,1.8185835E0,3.3885077E-1,1.8422476E2,8.316501E0,1.2000002E0,8.905462E1,1.7394383E2,1.4727498E0,8.000001E-1,9.5687383E-1,2.0560156E-1,6.1852493E0,4.104E0,-9.428576E-2,2.6687118E-1,-2.0718852E-1,-1.12521164E-1,1.5683122E0,-1.3045391E-1,-6.40266E-2,-1.2553008E-1,6.457348E-2,7.330089E-1,1.5505186E0,2.0890354E-1,2.4289931E-3,5.428572E-1,-8.395249E-2,8.842E-2,-5.2924916E-2,1.20664105E-1,2.6481557E-1,7.180169E-2,2.0958467E-1,8.0551285E-1,1.2765193E-1,-2.2074513E-1,7.601887E-1,1.520342E-1,-3.0968067E-1,1.7477573E-1,2.3027318E0,3.663942E-1,-3.7368453E-1,1.0277615E0,2.0899788E-1,1.2507218E0,-9.50376E-2,7.921997E-1,1.6617374E-1,6.8901026E-1,-1.8647707E-1,6.08953E-2,1.7491119E-1,-8.045803E-2,-1.5418747E-1,-1.7163541E-2],"split_indices":[0,1,4,0,2,1,3,3,3,1,3,1,1,3,1,1,3,2,4,0,1,0,0,4,3,2,4,0,1,4,0,1,4,0,4,0,1,3,1,1,0,4,0,0,1,0,4,1,2,4,4,1,2,0,0,1,1,0,0,0,0,0,0,0,0,0,0,0,0,0,0,0,0,0,0,0,0,0,0,0,0,0,0,0,0,0,0,0,0,0,0,0,0,0,0,0,0,0,0,0,0],"split_type":[0,0,0,0,0,0,0,0,0,0,0,0,0,0,0,0,0,0,0,0,0,0,0,0,0,0,0,0,0,0,0,0,0,0,0,0,0,0,0,0,0,0,0,0,0,0,0,0,0,0,0,0,0,0,0,0,0,0,0,0,0,0,0,0,0,0,0,0,0,0,0,0,0,0,0,0,0,0,0,0,0,0,0,0,0,0,0,0,0,0,0,0,0,0,0,0,0,0,0,0,0],"sum_hessian":[1.539E3,1.278E3,2.61E2,1.207E3,7.1E1,1.17E2,1.44E2,4.29E2,7.78E2,6.6E1,5E0,4.5E1,7.2E1,1.7E1,1.27E2,8.3E1,3.46E2,6.8E1,7.1E2,3.9E1,2.7E1,1E0,4E0,3.3E1,1.2E1,1.5E1,5.7E1,1.4E1,3E0,1.26E2,1E0,1.4E1,6.9E1,3E0,3.43E2,6.4E1,4E0,3.92E2,3.18E2,3.8E1,1E0,2.2E1,5E0,1.9E1,1.4E1,1E0,1.1E1,6E0,9E0,2.6E1,3.1E1,8E0,6E0,2E0,1E0,7E1,5.6E1,1.2E1,2E0,5E1,1.9E1,1E0,2E0,1.81E2,1.62E2,6.2E1,2E0,1E0,3E0,3.89E2,3E0,3.01E2,1.7E1,2.5E1,1.3E1,1.2E1,1E1,3E0,2E0,1.5E1,4E0,5E0,9E0,9E0,2E0,5E0,1E0,3E0,6E0,1.9E1,7E0,2.4E1,7E0,5E0,3E0,4E0,2E0,4.1E1,2.9E1,2.1E1,3.5E1],"tree_param":{"num_deleted":"0","num_feature":"5","num_nodes":"101","size_leaf_vector":"1"}},{"base_weights":[2.4929505E-2,-7.2015695E-2,4.9808973E-1,-1.5718436E-1,9.533396E-2,9.157073E-1,1.548003E-1,-3.5463456E-2,-2.244449E-1,7.6031305E-2,1.728575E0,1.9421351E0,6.467602E-1,9.198646E-1,4.600376E-2,-1.587224E-1,1.2303956E0,-1.7410335E-1,-4.3176737E-1,3.2169133E-1,-2.8688015E-2,2.1987726E-1,6.4441025E-1,5.723069E-1,3.5089953E0,2.9677007E-1,1.564166E0,5.158332E-1,2.2050161E0,9.440759E-3,1.5663152E0,-3.4078613E-1,2.1108818E-1,2.9091644E0,2.293908E-1,-2.304783E-2,-2.567055E-1,-8.2463557E-1,-3.0672503E-1,5.7257277E-1,-8.5522415E-4,-3.075331E-1,8.795941E-2,1.363257E0,-7.095029E-1,-3.1329495E-1,4.6368775E0,4.3924206E-1,-8.622934E-1,2.5055199E0,5.272707E-2,1.068042E0,-2.6784003E-1,7.65499E-1,1.747613E-1,1.2189403E-1,-3.5447285E-1,5.719265E-1,1.329154E-1,-1.1098609E-1,3.2364738E-1,7.0536447E-1,1.0331193E-2,1.51454E0,1.924657E-1,-7.523716E-2,5.918169E-1,4.9614467E-2,-6.9380715E-2,2.9614305E-3,-9.487243E-2,-2.6987472E-1,-1.0347966E-1,-1.0466179E-1,1.23636894E-1,1.2878704E-1,1.1174933E0,-1.03269435E-1,5.821713E-2,-6.6291936E-2,-3.869862E-1,5.8670694E-1,1.829614E-2,1.0188399E-1,9.892021E-1,-5.020963E-1,5.7295922E-2,1.6696478E0,2.7734467E-1,9.3727805E-2,1.245276E0,2.3363845E-1,-6.008116E-1,-4.426874E-2,1.0206534E0,-3.8197628E-1,2.9769722E-1,1.2463028E-1,5.3398293E-1,-2.0530443E-1,1.0689841E-2,-1.6257131E-2,1.4955948E-1,-2.1124026E-2,-1.4789458E-1],"categories":[],"categories_nodes":[],"categories_segments":[],"categories_sizes":[],"default_left":[0,0,0,0,0,0,0,0,0,0,0,0,0,0,0,0,0,0,0,0,0,0,0,0,0,0,0,0,0,0,0,0,0,0,0,0,0,0,0,0,0,0,0,0,0,0,0,0,0,0,0,0,0,0,0,0,0,0,0,0,0,0,0,0,0,0,0,0,0,0,0,0,0,0,0,0,0,0,0,0,0,0,0,0,0,0,0,0,0,0,0,0,0,0,0,0,0,0,0,0,0,0,0,0,0],"id":5,"left_children":[1,3,5,7,9,11,13,15,17,19,21,23,25,27,29,31,33,35,37,39,41,-1,-1,43,45,47,49,51,53,55,57,59,61,63,65,67,69,71,73,75,77,79,81,83,85,-1,87,89,91,93,95,97,99,-1,-1,101,103,-1,-1,-1,-1,-1,-1,-1,-1,-1,-1,-1,-1,-1,-1,-1,-1,-1,-1,-1,-1,-1,-1,-1,-1,-1,-1,-1,-1,-1,-1,-1,-1,-1,-1,-1,-1,-1,-1,-1,-1,-1,-1,-1,-1,-1,-1,-1,-1],"loss_changes":[7.067661E1,1.8244507E1,3.7419533E1,6.9346275E0,1.3487761E1,3.1318375E1,1.2026955E1,4.7471912E1,5.623394E0,1.1019679E1,5.1382923E-1,4.9503677E1,3.0038685E1,8.208929E0,7.1003675E0,1.8722092E1,4.470496E1,5.496666E0,4.9543324E0,1.0358372E1,9.817545E0,0E0,0E0,1.5161103E1,6.1333954E1,1.1938146E1,3.6860657E1,6.7773333E0,7.632694E-1,5.1995406E0,3.0144453E-1,8.100731E0,3.470011E1,4.527221E1,1.556282E1,6.1981416E0,4.526331E0,5.885105E-1,2.628193E0,3.0922215E1,3.8817108E0,7.2833652E0,1.0611016E1,1.6698492E1,5.5288944E0,0E0,2.5881302E1,2.8357275E1,1.653183E1,3.8564545E1,1.4968247E1,3.4418802E0,9.0917736E-1,0E0,0E0,6.4600587E0,1.1456318E0,0E0,0E0,0E0,0E0,0E0,0E0,0E0,0E0,0E0,0E0,0E0,0E0,0E0,0E0,0E0,0E0,0E0,0E0,0E0,0E0,0E0,0E0,0E0,0E0,0E0,0E0,0E0,0E0,0E0,0E0,0E0,0E0,0E0,0E0,0E0,0E0,0E0,0E0,0E0,0E0,0E0,0E0,0E0,0E0,0E0,0E0,0E0,0E0],"parents":[2147483647,0,0,1,1,2,2,3,3,4,4,5,5,6,6,7,7,8,8,9,9,10,10,11,11,12,12,13,13,14,14,15,15,16,16,17,17,18,18,19,19,20,20,23,23,24,24,25,25,26,26,27,27,28,28,29,29,30,30,31,31,32,32,33,33,34,34,35,35,36,36,37,37,38,38,39,39,40,40,41,41,42,42,43,43,44,44,46,46,47,47,48,48,49,49,50,50,51,51,52,52,55,55,56,56],"right_children":[2,4,6,8,10,12,14,16,18,20,22,24,26,28,30,32,34,36,38,40,42,-1,-1,44,46,48,50,52,54,56,58,60,62,64,66,68,70,72,74,76,78,80,82,84,86,-1,88,90,92,94,96,98,100,-1,-1,102,104,-1,-1,-1,-1,-1,-1,-1,-1,-1,-1,-1,-1,-1,-1,-1,-1,-1,-1,-1,-1,-1,-1,-1,-1,-1,-1,-1,-1,-1,-1,-1,-1,-1,-1,-1,-1,-1,-1,-1,-1,-1,-1,-1,-1,-1,-1,-1,-1],"split_conditions":[3.5066667E0,1.9266666E0,1.8824821E2,2.0203426E2,2.2774834E1,1E-1,1.2879752E1,1.9367131E2,1.9000002E0,1.3896187E1,2.5333333E0,1.4857056E2,7.3233333E0,1.2682018E1,2.1389418E1,1.7000003E0,9.84775E0,2.5660745E2,2.207898E2,6.383167E0,2.4060833E0,2.1987726E-1,6.4441025E-1,9.283539E1,1.7102499E0,2.4192429E1,1.5540018E2,4.8433332E0,1.8993586E1,2.2725668E1,5.7066665E0,2.0881086E1,1.9000002E0,1.3333334E0,1.7566667E0,7.5790005E0,-2.0897498E0,1.5578999E1,1.33E1,4.2E0,1.6875552E2,3.11E0,2.4560838E0,1.5696165E1,6.6266665E0,-3.1329495E-1,1.1006666E1,2.2828087E1,3.6866667E0,2.8415E0,1.2000002E0,1.4727498E0,5.5666666E0,7.65499E-1,1.747613E-1,6.016667E0,1E-1,5.719265E-1,1.329154E-1,-1.1098609E-1,3.2364738E-1,7.0536447E-1,1.0331193E-2,1.51454E0,1.924657E-1,-7.523716E-2,5.918169E-1,4.9614467E-2,-6.9380715E-2,2.9614305E-3,-9.487243E-2,-2.6987472E-1,-1.0347966E-1,-1.0466179E-1,1.23636894E-1,1.2878704E-1,1.1174933E0,-1.03269435E-1,5.821713E-2,-6.6291936E-2,-3.869862E-1,5.8670694E-1,1.829614E-2,1.0188399E-1,9.892021E-1,-5.020963E-1,5.7295922E-2,1.6696478E0,2.7734467E-1,9.3727805E-2,1.245276E0,2.3363845E-1,-6.008116E-1,-4.426874E-2,1.0206534E0,-3.8197628E-1,2.9769722E-1,1.2463028E-1,5.3398293E-1,-2.0530443E-1,1.0689841E-2,-1.6257131E-2,1.4955948E-1,-2.1124026E-2,-1.4789458E-1],"split_indices":[0,0,4,4,1,2,3,4,2,3,0,4,0,3,1,2,1,4,4,1,1,0,0,4,1,3,4,0,1,3,0,1,2,0,0,1,1,1,2,2,4,0,1,3,0,0,0,3,0,1,2,1,0,0,0,0,2,0,0,0,0,0,0,0,0,0,0,0,0,0,0,0,0,0,0,0,0,0,0,0,0,0,0,0,0,0,0,0,0,0,0,0,0,0,0,0,0,0,0,0,0,0,0,0,0],"split_type":[0,0,0,0,0,0,0,0,0,0,0,0,0,0,0,0,0,0,0,0,0,0,0,0,0,0,0,0,0,0,0,0,0,0,0,0,0,0,0,0,0,0,0,0,0,0,0,0,0,0,0,0,0,0,0,0,0,0,0,0,0,0,0,0,0,0,0,0,0,0,0,0,0,0,0,0,0,0,0,0,0,0,0,0,0,0,0,0,0,0,0,0,0,0,0,0,0,0,0,0,0,0,0,0,0],"sum_hessian":[1.539E3,1.278E3,2.61E2,8.47E2,4.31E2,1.17E2,1.44E2,3.02E2,5.45E2,4.27E2,4E0,2.3E1,9.4E1,1.7E1,1.27E2,2.76E2,2.6E1,4.4E2,1.05E2,1.27E2,3E2,2E0,2E0,1.3E1,1E1,6.9E1,2.5E1,1.4E1,3E0,1.25E2,2E0,1.85E2,9.1E1,9E0,1.7E1,1.56E2,2.84E2,2.4E1,8.1E1,7.1E1,5.6E1,8.8E1,2.12E2,8E0,5E0,2E0,8E0,6.2E1,7E0,1.5E1,1E1,8E0,6E0,2E0,1E0,9.6E1,2.9E1,1E0,1E0,1.82E2,3E0,6E0,8.5E1,4E0,5E0,1.4E1,3E0,8.2E1,7.4E1,5.2E1,2.32E2,2E1,4E0,7.7E1,4E0,6.9E1,2E0,2E1,3.6E1,8.2E1,6E0,2E0,2.1E2,6E0,2E0,2E0,3E0,6E0,2E0,6.1E1,1E0,3E0,4E0,4E0,1.1E1,4E0,6E0,5E0,3E0,2E0,4E0,6.6E1,3E1,1E1,1.9E1],"tree_param":{"num_deleted":"0","num_feature":"5","num_nodes":"105","size_leaf_vector":"1"}},{"base_weights":[2.4671718E-2,-7.86618E-2,2.7280018E-1,5.798901E-1,-8.414635E-2,4.808681E-1,-7.96978E-2,-9.8425716E-2,4.049876E-1,5.5381435E-1,-3.7416357E-1,-1.887981E-1,5.0108147E-1,-4.327538E-2,-2.1494345E-1,2.0141347E-1,1.0741826E0,2.0564069E-1,7.766659E-1,1.1667497E-1,-9.202306E-1,2.977792E-1,-2.4391331E-1,8.0825317E-1,4.976241E-2,8.1105724E-2,-1.6245487E-1,-2.5416863E-1,1.3301727E-1,1.0719041E-1,3.6941507E-1,6.840247E-2,3.5316312E-1,4.898439E-1,-5.462588E-1,1.2058363E0,4.5451266E-1,7.6933324E-1,-5.5265117E-1,-5.512385E-1,-3.4658632E-1,2.1144527E-1,1.3728483E-1,-3.21289E-1,6.029448E-2,9.455294E-1,-1.01786934E-1,-2.0199803E-1,1.8113483E-1,-3.619812E-2,6.8422966E-2,5.9007446E-4,-6.645966E-2,-9.8357245E-2,-2.7098037E-2,3.316472E-1,-4.487486E-2,-2.8322542E-2,1.0620786E-1,5.417124E-2,3.5839975E-1,-2.0445453E-1,4.8613745E-1,2.6898184E-1,1.023896E0,4.059878E-2,3.6891797E-1,2.5819918E-2,4.9550012E-1,3.700998E-2,-2.0576458E-1,-1.2732013E-1,2.9716838E-2,-2.0709837E-2,8.8354915E-2,-1.9628625E-1,-8.230865E-2,4.8751077E-1,-3.896588E-2,3.2203704E-1,1.0720406E-1,3.6724236E-2,-8.252835E-2,-9.4716154E-2,1.06167294E-1],"categories":[],"categories_nodes":[],"categories_segments":[],"categories_sizes":[],"default_left":[0,0,0,0,0,0,0,0,0,0,0,0,0,0,0,0,0,0,0,0,0,0,0,0,0,0,0,0,0,0,0,0,0,0,0,0,0,0,0,0,0,0,0,0,0,0,0,0,0,0,0,0,0,0,0,0,0,0,0,0,0,0,0,0,0,0,0,0,0,0,0,0,0,0,0,0,0,0,0,0,0,0,0,0,0],"id":6,"left_children":[1,3,5,-1,7,9,11,13,15,17,19,21,23,25,27,29,31,33,35,37,39,41,43,45,47,49,51,53,55,57,-1,-1,-1,59,61,63,65,67,69,-1,71,-1,73,75,77,79,81,83,-1,-1,-1,-1,-1,-1,-1,-1,-1,-1,-1,-1,-1,-1,-1,-1,-1,-1,-1,-1,-1,-1,-1,-1,-1,-1,-1,-1,-1,-1,-1,-1,-1,-1,-1,-1,-1],"loss_changes":[3.950704E1,1.21664295E1,3.326294E1,0E0,7.625051E0,1.7983047E1,1.0802982E1,6.7765455E0,4.0068E0,2.0246735E1,6.2720747E0,3.907579E0,3.702855E0,1.0656576E1,4.66076E0,2.2941809E0,3.4184265E-1,2.2491573E1,2.1573318E1,6.1041093E0,5.1509676E0,8.831496E-1,3.055812E0,2.0950737E0,1.7957277E0,1.0465632E1,3.5653276E0,3.6527462E0,9.784101E0,1.2277068E0,0E0,0E0,0E0,1.6350946E1,9.603165E0,4.335106E1,2.2845072E1,4.077933E0,7.150793E-1,0E0,3.1945753E-1,0E0,4.09607E-1,1.4300241E0,8.245829E0,6.6982746E-1,1.5024269E-1,6.8068427E-1,0E0,0E0,0E0,0E0,0E0,0E0,0E0,0E0,0E0,0E0,0E0,0E0,0E0,0E0,0E0,0E0,0E0,0E0,0E0,0E0,0E0,0E0,0E0,0E0,0E0,0E0,0E0,0E0,0E0,0E0,0E0,0E0,0E0,0E0,0E0,0E0,0E0],"parents":[2147483647,0,0,1,1,2,2,4,4,5,5,6,6,7,7,8,8,9,9,10,10,11,11,12,12,13,13,14,14,15,15,16,16,17,17,18,18,19,19,20,20,21,21,22,22,23,23,24,24,25,25,26,26,27,27,28,28,29,29,33,33,34,34,35,35,36,36,37,37,38,38,40,40,42,42,43,43,44,44,45,45,46,46,47,47],"right_children":[2,4,6,-1,8,10,12,14,16,18,20,22,24,26,28,30,32,34,36,38,40,42,44,46,48,50,52,54,56,58,-1,-1,-1,60,62,64,66,68,70,-1,72,-1,74,76,78,80,82,84,-1,-1,-1,-1,-1,-1,-1,-1,-1,-1,-1,-1,-1,-1,-1,-1,-1,-1,-1,-1,-1,-1,-1,-1,-1,-1,-1,-1,-1,-1,-1,-1,-1,-1,-1,-1,-1],"split_conditions":[2.55E0,7.42159E0,2.349115E2,5.798901E-1,1.95665E1,2.4192429E1,1.7178999E1,1.0824834E1,3E-1,1.50038395E1,3.6866667E0,-3.5022504E0,1.3779114E1,1.7731598E1,2.3023117E1,1.9681828E1,7.4E-1,1.3910169E1,1.757744E1,4.8E0,1.8236713E2,2.4836632E2,6.016667E0,6.016667E0,1.9862333E1,1.29E0,1.9543051E2,1.6470667E1,1.705377E2,1.82E0,3.6941507E-1,6.840247E-2,3.5316312E-1,1.2371645E1,2.1943583E1,1.7309975E1,2.1322214E1,1.251025E1,2.7833333E0,-5.512385E-1,2.181292E2,2.1144527E-1,1.433234E1,2.6666667E0,6.1666665E0,2.7605304E2,7.0299997E0,1.7163355E1,1.8113483E-1,-3.619812E-2,6.8422966E-2,5.9007446E-4,-6.645966E-2,-9.8357245E-2,-2.7098037E-2,3.316472E-1,-4.487486E-2,-2.8322542E-2,1.0620786E-1,5.417124E-2,3.5839975E-1,-2.0445453E-1,4.8613745E-1,2.6898184E-1,1.023896E0,4.059878E-2,3.6891797E-1,2.5819918E-2,4.9550012E-1,3.700998E-2,-2.0576458E-1,-1.2732013E-1,2.9716838E-2,-2.0709837E-2,8.8354915E-2,-1.9628625E-1,-8.230865E-2,4.8751077E-1,-3.896588E-2,3.2203704E-1,1.0720406E-1,3.6724236E-2,-8.252835E-2,-9.4716154E-2,1.06167294E-1],"split_indices":[0,3,4,0,1,3,1,1,2,3,0,1,3,3,3,3,0,3,3,2,4,4,0,0,1,0,4,1,4,0,0,0,0,3,1,3,3,1,0,0,4,0,3,0,0,4,0,3,0,0,0,0,0,0,0,0,0,0,0,0,0,0,0,0,0,0,0,0,0,0,0,0,0,0,0,0,0,0,0,0,0,0,0,0,0],"split_type":[0,0,0,0,0,0,0,0,0,0,0,0,0,0,0,0,0,0,0,0,0,0,0,0,0,0,0,0,0,0,0,0,0,0,0,0,0,0,0,0,0,0,0,0,0,0,0,0,0,0,0,0,0,0,0,0,0,0,0,0,0,0,0,0,0,0,0,0,0,0,0,0,0,0,0,0,0,0,0,0,0,0,0,0,0],"sum_hessian":[1.539E3,1.087E3,4.52E2,2E0,1.085E3,2.84E2,1.68E2,1.055E3,3E1,2.62E2,2.2E1,1.42E2,2.6E1,7.17E2,3.38E2,2.4E1,6E0,1.03E2,1.59E2,1.2E1,1E1,1.4E1,1.28E2,1.5E1,1.1E1,3.51E2,3.66E2,3.04E2,3.4E1,2.3E1,1E0,1E0,5E0,7.5E1,2.8E1,6.7E1,9.2E1,6E0,6E0,3E0,7E0,3E0,1.1E1,1.02E2,2.6E1,1.3E1,2E0,8E0,3E0,1.48E2,2.03E2,9.7E1,2.69E2,2.09E2,9.5E1,7E0,2.7E1,1.3E1,1E1,5.3E1,2.2E1,2.7E1,1E0,6E1,7E0,6.6E1,2.6E1,4E0,2E0,1E0,5E0,6E0,1E0,5E0,6E0,1.1E1,9.1E1,2E0,2.4E1,1E1,3E0,1E0,1E0,7E0,1E0],"tree_param":{"num_deleted":"0","num_feature":"5","num_nodes":"85","size_leaf_vector":"1"}},{"base_weights":[2.032334E-2,-4.817929E-3,6.098229E-1,-3.12246E-1,2.1105126E-2,1.8991907E0,2.3660348E-1,-2.322666E-1,-9.2191005E-1,1.7730056E-1,-6.949096E-2,-1.2392726E0,2.5255406E0,4.8769352E-1,-5.991561E-1,-6.2192164E-2,-3.8544172E-1,-9.911815E-1,-1.3597835E-2,1.16371E-1,5.0623435E-1,-7.9736754E-2,7.322728E-1,-8.4326506E-2,-4.7334617E-1,-9.033781E-2,3.4075377E0,1.0133768E0,1.858758E-1,-9.967072E-2,-3.8355047E-1,2.4781893E-1,-2.9522842E-1,1.6298796E-1,-4.1321582E-1,-4.2027384E-2,-3.1674534E-1,-3.4115064E-1,1.7159429E-1,1.8662577E0,2.3068072E-1,-2.8295174E-2,-2.2695045E-1,-4.6230018E-1,3.7140757E-1,1.0286601E-1,-1.0471247E-1,-1.9388724E-2,3.849637E0,1.7829795E0,-1.0937146E-2,-3.6651385E-1,4.2259228E-1,-4.9736375E-1,4.2236322E-1,2.67656E-2,5.3676367E-1,-9.447854E-3,-1.4386268E-1,-1.3619986E-1,5.9965327E-2,-1.2092491E-1,3.66871E-1,-1.5972823E-1,6.1838064E-2,9.7919005E-1,6.0582098E-2,1.4131217E-2,3.7619993E-1,2.7177017E-2,-4.0001467E-2,-1.238141E-1,-4.3035436E-2,-1.4142234E-2,-1.7549191E-1,1.2497215E0,2.4553937E-1,1.5015945E-1,6.381121E-1,-2.8504023E-1,1.6643053E-1,1.9079927E-1,-3.6363262E-1,-1.8581235E-1,-1.3980747E-3,1.80924E-1,-1.7968047E-2],"categories":[],"categories_nodes":[],"categories_segments":[],"categories_sizes":[],"default_left":[0,0,0,0,0,0,0,0,0,0,0,0,0,0,0,0,0,0,0,0,0,0,0,0,0,0,0,0,0,0,0,0,0,0,0,0,0,0,0,0,0,0,0,0,0,0,0,0,0,0,0,0,0,0,0,0,0,0,0,0,0,0,0,0,0,0,0,0,0,0,0,0,0,0,0,0,0,0,0,0,0,0,0,0,0,0,0],"id":7,"left_children":[1,3,5,7,9,11,13,15,17,19,21,23,25,27,29,31,33,35,-1,37,39,41,43,-1,-1,45,47,49,51,53,-1,55,57,-1,59,-1,-1,61,63,65,67,69,71,73,-1,-1,-1,-1,75,77,79,-1,81,83,85,-1,-1,-1,-1,-1,-1,-1,-1,-1,-1,-1,-1,-1,-1,-1,-1,-1,-1,-1,-1,-1,-1,-1,-1,-1,-1,-1,-1,-1,-1,-1,-1],"loss_changes":[2.2826921E1,1.1785474E1,2.9867321E1,5.3933353E0,1.9313871E1,3.06507E1,1.078475E1,2.6592994E0,7.4446297E-1,9.982026E0,7.155897E0,5.296669E-1,2.7994194E1,5.999399E0,3.944449E0,3.6853547E0,1.6174164E0,5.1222515E-1,0E0,1.0771259E1,2.8800718E1,6.4608397E0,7.2180796E0,0E0,0E0,5.679889E-1,1.4064194E1,1.1055908E1,9.179471E0,1.8709421E0,0E0,5.2186074E0,1.3945911E0,0E0,1.4159851E0,0E0,0E0,4.9487476E0,9.323876E0,2.9581879E1,1.2339527E1,7.929512E0,3.3687363E0,1.7613912E-1,0E0,0E0,0E0,0E0,4.255745E0,2.465269E0,4.2462673E0,0E0,8.794537E0,2.9768932E-1,3.84728E-1,0E0,0E0,0E0,0E0,0E0,0E0,0E0,0E0,0E0,0E0,0E0,0E0,0E0,0E0,0E0,0E0,0E0,0E0,0E0,0E0,0E0,0E0,0E0,0E0,0E0,0E0,0E0,0E0,0E0,0E0,0E0,0E0],"parents":[2147483647,0,0,1,1,2,2,3,3,4,4,5,5,6,6,7,7,8,8,9,9,10,10,11,11,12,12,13,13,14,14,15,15,16,16,17,17,19,19,20,20,21,21,22,22,25,25,26,26,27,27,28,28,29,29,31,31,32,32,34,34,37,37,38,38,39,39,40,40,41,41,42,42,43,43,48,48,49,49,50,50,52,52,53,53,54,54],"right_children":[2,4,6,8,10,12,14,16,18,20,22,24,26,28,30,32,34,36,-1,38,40,42,44,-1,-1,46,48,50,52,54,-1,56,58,-1,60,-1,-1,62,64,66,68,70,72,74,-1,-1,-1,-1,76,78,80,-1,82,84,86,-1,-1,-1,-1,-1,-1,-1,-1,-1,-1,-1,-1,-1,-1,-1,-1,-1,-1,-1,-1,-1,-1,-1,-1,-1,-1,-1,-1,-1,-1,-1,-1],"split_conditions":[7.3233333E0,4.3264347E1,1.374943E2,4.0296288E1,2.0619711E2,4.4470886E1,1.1006666E1,1.4658676E1,1.8720667E1,1.9367131E2,1.37E1,1.0256666E1,2.7706664E0,1.7270891E2,4E-1,2.0206668E0,6.2333333E-1,9.6666664E-1,-1.3597835E-2,9.766666E-1,1.4113653E1,1.0000001E0,8.3498335E0,-8.4326506E-2,-4.7334617E-1,1E-1,1.191812E1,1.2737332E1,2.081961E2,1.9602652E1,-3.8355047E-1,1.2E0,1.4433334E0,1.6298796E-1,3.6266665E0,-4.2027384E-2,-3.1674534E-1,1.4399999E1,-2.7480834E0,2.0122923E2,5.9000006E0,2.6658258E2,2.3624232E2,1.1666667E0,3.7140757E-1,1.0286601E-1,-1.0471247E-1,-1.9388724E-2,1.5176915E1,1.4857056E2,1.3541501E1,-3.6651385E-1,1.8514418E1,1.9086666E1,1E-1,2.67656E-2,5.3676367E-1,-9.447854E-3,-1.4386268E-1,-1.3619986E-1,5.9965327E-2,-1.2092491E-1,3.66871E-1,-1.5972823E-1,6.1838064E-2,9.7919005E-1,6.0582098E-2,1.4131217E-2,3.7619993E-1,2.7177017E-2,-4.0001467E-2,-1.238141E-1,-4.3035436E-2,-1.4142234E-2,-1.7549191E-1,1.2497215E0,2.4553937E-1,1.5015945E-1,6.381121E-1,-2.8504023E-1,1.6643053E-1,1.9079927E-1,-3.6363262E-1,-1.8581235E-1,-1.3980747E-3,1.80924E-1,-1.7968047E-2],"split_indices":[0,4,4,4,4,4,0,3,1,4,2,0,1,4,2,1,0,0,0,0,3,2,1,0,0,2,3,1,4,3,0,2,0,0,0,0,0,2,1,4,2,4,4,0,0,0,0,0,1,4,1,0,1,0,2,0,0,0,0,0,0,0,0,0,0,0,0,0,0,0,0,0,0,0,0,0,0,0,0,0,0,0,0,0,0,0,0],"split_type":[0,0,0,0,0,0,0,0,0,0,0,0,0,0,0,0,0,0,0,0,0,0,0,0,0,0,0,0,0,0,0,0,0,0,0,0,0,0,0,0,0,0,0,0,0,0,0,0,0,0,0,0,0,0,0,0,0,0,0,0,0,0,0,0,0,0,0,0,0,0,0,0,0,0,0,0,0,0,0,0,0,0,0,0,0,0,0],"sum_hessian":[1.539E3,1.477E3,6.2E1,1.14E2,1.363E3,1.3E1,4.9E1,1.02E2,1.2E1,5E2,8.63E2,2E0,1.1E1,3.8E1,1.1E1,4.9E1,5.3E1,1.1E1,1E0,4.23E2,7.7E1,8.53E2,1E1,1E0,1E0,3E0,8E0,1.3E1,2.5E1,7E0,4E0,2.1E1,2.8E1,1E0,5.2E1,1E0,1E1,4.5E1,3.78E2,1.2E1,6.5E1,6.33E2,2.2E2,3E0,7E0,1E0,2E0,1E0,7E0,7E0,6E0,3E0,2.2E1,4E0,3E0,2E1,1E0,1.2E1,1.6E1,4.9E1,3E0,4.4E1,1E0,1.7E1,3.61E2,6E0,6E0,5.6E1,9E0,2.97E2,3.36E2,6.7E1,1.53E2,1E0,2E0,6E0,1E0,2E0,5E0,2E0,4E0,2E1,2E0,3E0,1E0,2E0,1E0],"tree_param":{"num_deleted":"0","num_feature":"5","num_nodes":"87","size_leaf_vector":"1"}},{"base_weights":[1.574822E-2,-1.8129079E-2,2.8707075E-1,3.690968E-2,-1.017668E-1,1.7465028E-1,1.0817573E0,1.7515829E-1,-7.4856475E-2,-7.932574E-2,-3.903158E-1,5.628167E-1,-1.677505E-1,3.2197785E0,3.8929474E-1,1.2915091E-1,2.5425198E0,-1.1558845E-1,5.3168166E-1,-9.324415E-2,1.6907452E0,5.45194E-1,-4.5561886E-1,1.1549934E0,1.2643287E-1,5.064353E-1,-3.9709723E-1,2.807668E-1,1.0670335E0,-1.0973035E-1,2.7546551E0,-1.4614072E-1,2.3982964E-1,1.6887978E0,1.8193224E-1,-9.206057E-2,-6.490008E-1,1.8930287E0,9.424204E-2,-7.192992E-2,-4.154502E-1,6.62588E-1,2.0565249E-2,-6.650307E-2,3.1184036E-1,-6.1828613E-1,-1.4924732E-2,5.7591087E-1,1.6256963E0,-1.8250993E-1,8.296522E-1,-2.4773869E-1,1.0927107E0,5.5521995E-1,-4.6540663E-1,-8.413281E-1,4.7148237E-1,9.938712E-1,2.4572368E-1,-2.2486586E-2,-2.4447206E-1,1.8866035E-1,2.4796275E-3,-8.792724E-2,3.1230366E-1,-3.2685958E-2,3.2159424E-1,-3.184166E-1,-2.5273563E-4,6.767778E-2,1.2123239E0,-1.6303453E-1,9.0470955E-2,-2.719439E-2,8.947019E-2,-1.8631405E-1,-6.973835E-2,-2.4032508E-1,-4.910462E-2,-4.2016946E-2,1.8545891E-1,5.5837876E-1,-1.4633916E-1,-2.7838213E-2,6.618778E-1,-3.1555784E-1,3.834232E-2,6.877389E-2,8.26377E-1,-2.569739E-1,3.4631924E-3,7.848571E-2,6.6117454E-1,-2.1524599E-1,-1.7217418E-2,-6.0095813E-2,-3.1730032E-1,3.2907897E-1,4.0823646E-2],"categories":[],"categories_nodes":[],"categories_segments":[],"categories_sizes":[],"default_left":[0,0,0,0,0,0,0,0,0,0,0,0,0,0,0,0,0,0,0,0,0,0,0,0,0,0,0,0,0,0,0,0,0,0,0,0,0,0,0,0,0,0,0,0,0,0,0,0,0,0,0,0,0,0,0,0,0,0,0,0,0,0,0,0,0,0,0,0,0,0,0,0,0,0,0,0,0,0,0,0,0,0,0,0,0,0,0,0,0,0,0,0,0,0,0,0,0,0,0],"id":8,"left_children":[1,3,5,7,9,11,13,15,17,19,21,23,25,27,29,31,33,35,37,39,41,43,45,47,49,51,53,-1,-1,55,57,59,61,-1,63,65,67,69,71,73,75,-1,-1,-1,-1,77,79,81,83,85,87,89,91,-1,93,95,97,-1,-1,-1,-1,-1,-1,-1,-1,-1,-1,-1,-1,-1,-1,-1,-1,-1,-1,-1,-1,-1,-1,-1,-1,-1,-1,-1,-1,-1,-1,-1,-1,-1,-1,-1,-1,-1,-1,-1,-1,-1,-1],"loss_changes":[1.416038E1,6.3103E0,1.5088044E1,1.2791515E1,3.4916267E0,2.0163591E1,2.9837042E1,3.9970596E1,1.1376575E1,1.26237545E1,2.6309743E0,1.8201536E1,1.2725512E1,5.1960754E-1,2.036863E1,1.1125738E1,4.998258E1,5.336777E0,1.7091305E1,3.4245067E0,3.209012E0,1.3675587E0,2.6431727E0,7.2410126E0,9.276112E0,9.555934E0,1.0227767E1,0E0,0E0,6.77488E0,5.2806854E-1,4.9375906E0,2.3417503E1,0E0,2.345525E0,8.2379055E0,4.810373E0,2.4160524E1,3.2047398E0,3.3043306E0,1.0219102E0,0E0,0E0,0E0,0E0,2.1125898E0,9.580414E-1,2.1416502E1,1.6167793E1,8.227671E0,1.4393192E1,1.5885073E0,1.0505567E1,0E0,6.1299696E0,7.588577E-1,1.7387269E0,0E0,0E0,0E0,0E0,0E0,0E0,0E0,0E0,0E0,0E0,0E0,0E0,0E0,0E0,0E0,0E0,0E0,0E0,0E0,0E0,0E0,0E0,0E0,0E0,0E0,0E0,0E0,0E0,0E0,0E0,0E0,0E0,0E0,0E0,0E0,0E0,0E0,0E0,0E0,0E0,0E0,0E0],"parents":[2147483647,0,0,1,1,2,2,3,3,4,4,5,5,6,6,7,7,8,8,9,9,10,10,11,11,12,12,13,13,14,14,15,15,16,16,17,17,18,18,19,19,20,20,21,21,22,22,23,23,24,24,25,25,26,26,29,29,30,30,31,31,32,32,34,34,35,35,36,36,37,37,38,38,39,39,40,40,45,45,46,46,47,47,48,48,49,49,50,50,51,51,52,52,54,54,55,55,56,56],"right_children":[2,4,6,8,10,12,14,16,18,20,22,24,26,28,30,32,34,36,38,40,42,44,46,48,50,52,54,-1,-1,56,58,60,62,-1,64,66,68,70,72,74,76,-1,-1,-1,-1,78,80,82,84,86,88,90,92,-1,94,96,98,-1,-1,-1,-1,-1,-1,-1,-1,-1,-1,-1,-1,-1,-1,-1,-1,-1,-1,-1,-1,-1,-1,-1,-1,-1,-1,-1,-1,-1,-1,-1,-1,-1,-1,-1,-1,-1,-1,-1,-1,-1,-1],"split_conditions":[4.5833335E0,1.8359999E1,6.3E0,6.383167E0,9.7E0,4E-1,1.3416803E2,6.099834E0,8.5E0,9.4E0,7.4E-1,2.0203426E2,3.0060833E0,4.6366663E0,2.3143827E1,1.3640907E2,1.628972E2,3.78E0,1.0971323E2,3.036403E1,1.6066667E0,7.2333336E-1,2.3700116E2,5.243584E0,8E0,1.9644169E0,8.12197E0,2.807668E-1,1.0670335E0,1.8422476E2,6.016667E0,1.17147835E2,2.4113791E2,1.6887978E0,2E-1,2.2774834E1,2.2248122E2,1.5366666E0,1.7108224E2,2.916889E1,2.3545401E2,6.62588E-1,2.0565249E-2,-6.650307E-2,3.1184036E-1,1.1929E1,1.7000002E1,1.3910169E1,1.35515E1,2.3893173E2,1.1970669E1,4.9533334E0,2.0619711E2,5.5521995E-1,7.3233333E0,1.4612631E2,2.0988875E2,9.938712E-1,2.4572368E-1,-2.2486586E-2,-2.4447206E-1,1.8866035E-1,2.4796275E-3,-8.792724E-2,3.1230366E-1,-3.2685958E-2,3.2159424E-1,-3.184166E-1,-2.5273563E-4,6.767778E-2,1.2123239E0,-1.6303453E-1,9.0470955E-2,-2.719439E-2,8.947019E-2,-1.8631405E-1,-6.973835E-2,-2.4032508E-1,-4.910462E-2,-4.2016946E-2,1.8545891E-1,5.5837876E-1,-1.4633916E-1,-2.7838213E-2,6.618778E-1,-3.1555784E-1,3.834232E-2,6.877389E-2,8.26377E-1,-2.569739E-1,3.4631924E-3,7.848571E-2,6.6117454E-1,-2.1524599E-1,-1.7217418E-2,-6.0095813E-2,-3.1730032E-1,3.2907897E-1,4.0823646E-2],"split_indices":[0,3,2,1,2,2,4,1,2,2,0,4,1,0,3,4,4,0,4,3,0,0,4,1,0,1,3,0,0,4,0,4,4,0,2,1,4,0,4,3,4,0,0,0,0,1,2,3,3,4,1,0,4,0,0,4,4,0,0,0,0,0,0,0,0,0,0,0,0,0,0,0,0,0,0,0,0,0,0,0,0,0,0,0,0,0,0,0,0,0,0,0,0,0,0,0,0,0,0],"split_type":[0,0,0,0,0,0,0,0,0,0,0,0,0,0,0,0,0,0,0,0,0,0,0,0,0,0,0,0,0,0,0,0,0,0,0,0,0,0,0,0,0,0,0,0,0,0,0,0,0,0,0,0,0,0,0,0,0,0,0,0,0,0,0,0,0,0,0,0,0,0,0,0,0,0,0,0,0,0,0,0,0,0,0,0,0,0,0,0,0,0,0,0,0,0,0,0,0,0,0],"sum_hessian":[1.539E3,1.369E3,1.7E2,8.26E2,5.43E2,1.5E2,2E1,3.69E2,4.57E2,5.05E2,3.8E1,7E1,8E1,4E0,1.6E1,3.63E2,6E0,4.29E2,2.8E1,5.02E2,3E0,2E0,3.6E1,2.9E1,4.1E1,2E1,6E1,1E0,3E0,1.4E1,2E0,1.04E2,2.59E2,2E0,4E0,4.12E2,1.7E1,6E0,2.2E1,4.72E2,3E1,2E0,1E0,1E0,1E0,2.6E1,1E1,1.4E1,1.5E1,2.9E1,1.2E1,9E0,1.1E1,1E0,5.9E1,6E0,8E0,1E0,1E0,9.5E1,9E0,9.6E1,1.63E2,3E0,1E0,4.07E2,5E0,1E1,7E0,4E0,2E0,5E0,1.7E1,4.5E2,2.2E1,1.3E1,1.7E1,1.8E1,8E0,9E0,1E0,6E0,8E0,4E0,1.1E1,7E0,2.2E1,1E1,2E0,2E0,7E0,7E0,4E0,3.6E1,2.3E1,2E0,4E0,2E0,6E0],"tree_param":{"num_deleted":"0","num_feature":"5","num_nodes":"99","size_leaf_vector":"1"}},{"base_weights":[1.6644925E-2,-1.7411247E-2,1.9328721E-1,1.2811992E0,-2.142756E-2,1.1209215E0,1.1615154E-1,1.5167065E-1,5.412136E-1,-2.5267944E-2,8.0398554E-1,2.3474326E0,1.5510505E-2,-6.2904143E-1,1.8207884E-1,-4.5765743E-2,9.5981255E-2,1.2390125E-1,4.3283084E-1,-5.9070873E-1,3.9149547E0,-4.2924783E-1,4.0338463E-1,-1.3160179E0,-2.8969142E-1,6.27087E-1,7.556199E-2,-1.1232111E-2,-1.2585819E-1,5.3368874E-2,1.0374355E0,-4.2619873E-2,7.797375E-2,-2.6987812E-1,5.0391916E-2,4.631082E0,5.0147656E-2,2.5283158E-2,-1.0037323E0,-6.8787865E-2,-4.462513E-1,-9.6565835E-2,-4.2004865E-1,2.1506192E-1,7.792886E-1,2.308494E-1,-2.4451147E-1,-2.3548407E-2,1.8682642E-2,-3.2587953E-2,-2.4240275E-1,3.2759845E-1,3.310517E-3,1.3944508E-1,5.5105835E-1,1.5725361E0,3.2823932E-1,1.0629989E-1,-1.265633E-1,-3.6242896E-1,-5.859597E-2,-9.575859E-2,1.4524476E-1,2.3253436E-1,-5.8565017E-2,1.3837293E-1,-4.8563246E-2,-1.7633164E-1,1.259728E-1],"categories":[],"categories_nodes":[],"categories_segments":[],"categories_sizes":[],"default_left":[0,0,0,0,0,0,0,0,0,0,0,0,0,0,0,0,0,0,0,0,0,0,0,0,0,0,0,0,0,0,0,0,0,0,0,0,0,0,0,0,0,0,0,0,0,0,0,0,0,0,0,0,0,0,0,0,0,0,0,0,0,0,0,0,0,0,0,0,0],"id":9,"left_children":[1,3,5,7,9,11,13,-1,-1,15,17,19,21,23,25,27,29,31,-1,33,35,37,-1,39,41,43,45,47,49,51,53,-1,-1,-1,-1,55,-1,57,59,-1,-1,61,-1,63,-1,65,67,-1,-1,-1,-1,-1,-1,-1,-1,-1,-1,-1,-1,-1,-1,-1,-1,-1,-1,-1,-1,-1,-1],"loss_changes":[9.267635E0,6.766046E0,1.7686672E1,7.1007204E-1,4.1063185E0,2.5723764E1,1.1463232E1,0E0,0E0,3.1955714E0,2.4278004E0,4.3763004E1,7.079608E0,4.0481434E0,1.0049002E1,3.0382922E0,7.4065084E0,1.8162306E-1,0E0,1.088489E0,1.5329269E1,2.3754663E0,0E0,7.770777E-1,2.8672366E0,3.2729767E1,8.655129E0,3.8070626E0,3.8030047E0,7.8584013E0,2.8083239E0,0E0,0E0,0E0,0E0,5.0649643E0,0E0,1.0323141E0,4.248767E-1,0E0,0E0,1.8352333E0,0E0,8.193532E0,0E0,1.0661036E1,1.3246774E1,0E0,0E0,0E0,0E0,0E0,0E0,0E0,0E0,0E0,0E0,0E0,0E0,0E0,0E0,0E0,0E0,0E0,0E0,0E0,0E0,0E0,0E0],"parents":[2147483647,0,0,1,1,2,2,3,3,4,4,5,5,6,6,9,9,10,10,11,11,12,12,13,13,14,14,15,15,16,16,17,17,19,19,20,20,21,21,23,23,24,24,25,25,26,26,27,27,28,28,29,29,30,30,35,35,37,37,38,38,41,41,43,43,45,45,46,46],"right_children":[2,4,6,8,10,12,14,-1,-1,16,18,20,22,24,26,28,30,32,-1,34,36,38,-1,40,42,44,46,48,50,52,54,-1,-1,-1,-1,56,-1,58,60,-1,-1,62,-1,64,-1,66,68,-1,-1,-1,-1,-1,-1,-1,-1,-1,-1,-1,-1,-1,-1,-1,-1,-1,-1,-1,-1,-1,-1],"split_conditions":[3.65E0,7.42159E0,3.78E0,-8.495997E0,2.2774834E1,1.757744E1,3.8933332E0,1.5167065E-1,5.412136E-1,4.1E0,2.5333333E0,2.7706664E0,1.2806084E1,1.2964998E1,1.374943E2,1.251025E1,1.8993586E1,1.64E0,4.3283084E-1,3.7333333E0,1.5176915E1,5.893584E0,4.0338463E-1,8.905462E1,1.6093582E1,4.4E0,2.2E0,1.4666667E0,3.4733334E0,1.1298495E1,9.299999E0,-4.2619873E-2,7.797375E-2,-2.6987812E-1,5.0391916E-2,1.8144345E2,5.0147656E-2,2.5E0,2.8277763E1,-6.8787865E-2,-4.462513E-1,3.87E0,-4.2004865E-1,1.3779114E1,7.792886E-1,2.555779E2,1.3058166E1,-2.3548407E-2,1.8682642E-2,-3.2587953E-2,-2.4240275E-1,3.2759845E-1,3.310517E-3,1.3944508E-1,5.5105835E-1,1.5725361E0,3.2823932E-1,1.0629989E-1,-1.265633E-1,-3.6242896E-1,-5.859597E-2,-9.575859E-2,1.4524476E-1,2.3253436E-1,-5.8565017E-2,1.3837293E-1,-4.8563246E-2,-1.7633164E-1,1.259728E-1],"split_indices":[0,3,0,1,1,3,0,0,0,2,0,1,1,3,4,1,1,0,0,0,1,1,0,4,1,2,2,0,0,3,2,0,0,0,0,4,0,2,3,0,0,0,0,3,0,4,1,0,0,0,0,0,0,0,0,0,0,0,0,0,0,0,0,0,0,0,0,0,0],"split_type":[0,0,0,0,0,0,0,0,0,0,0,0,0,0,0,0,0,0,0,0,0,0,0,0,0,0,0,0,0,0,0,0,0,0,0,0,0,0,0,0,0,0,0,0,0,0,0,0,0,0,0,0,0,0,0,0,0,0,0,0,0,0,0,0,0,0,0,0,0],"sum_hessian":[1.539E3,1.291E3,2.48E2,3E0,1.288E3,1.8E1,2.3E2,2E0,1E0,1.283E3,5E0,8E0,1E1,1.8E1,2.12E2,1.098E3,1.85E2,3E0,2E0,3E0,5E0,8E0,2E0,5E0,1.3E1,4E1,1.72E2,7.68E2,3.3E2,1.78E2,7E0,1E0,2E0,2E0,1E0,4E0,1E0,5E0,3E0,1E0,4E0,1.2E1,1E0,3.4E1,6E0,1.16E2,5.6E1,4.01E2,3.67E2,3.23E2,7E0,6E0,1.72E2,5E0,2E0,3E0,1E0,3E0,2E0,2E0,1E0,9E0,3E0,1.4E1,2E1,7.3E1,4.3E1,3.7E1,1.9E1],"tree_param":{"num_deleted":"0","num_feature":"5","num_nodes":"69","size_leaf_vector":"1"}},{"base_weights":[1.4056163E-2,-2.0321228E-1,3.1732712E-2,-1.4941226E-1,-6.179806E-1,1.4745669E-1,-2.8319806E-2,-1.2555693E-1,-3.909769E-1,-6.6849726E-1,-1.7670572E-3,1.0167224E-1,8.1765157E-1,-3.5006784E-2,7.5425303E-1,-1.43400645E-2,-2.743627E-1,-2.881804E-2,-2.1354128E-1,-1.658338E-2,2.4584089E-1,1.7075722E0,8.006593E-2,-7.1010906E-1,-2.9865613E-2,-4.0744282E-2,1.0735778E0,-8.52475E-2,6.3803476E-1,-1.0083383E-1,-3.7988704E-1,-2.5564292E-1,1.5873137E-1,-2.29894E-2,3.9672294E-1,3.3978305E0,6.91686E-1,-1.6267596E-1,7.4373E-1,-8.429596E-2,-2.885113E-1,-1.7167795E-3,-1.346969E-1,1.6526568E-1,4.2379248E-1,-1.2747747E-1,-8.057586E-3,3.9357278E-1,-8.063919E-3,-6.106971E-2,4.1567244E-2,-2.496404E-1,-7.178376E-2,-1.1517885E-1,9.326384E-3,4.857115E-1,3.5032086E-2,4.725795E-1,-2.6506849E-2,1.247045E0,8.3116665E-2,3.0266187E-1,1.3962533E0,-2.710597E-1,3.6102962E-1,-1.243316E-1,7.262423E-2,-4.555941E-2,4.1742444E-1,3.173278E-2,-2.7725367E-2,-4.6791136E-2,6.0204685E-1],"categories":[],"categories_nodes":[],"categories_segments":[],"categories_sizes":[],"default_left":[0,0,0,0,0,0,0,0,0,0,0,0,0,0,0,0,0,0,0,0,0,0,0,0,0,0,0,0,0,0,0,0,0,0,0,0,0,0,0,0,0,0,0,0,0,0,0,0,0,0,0,0,0,0,0,0,0,0,0,0,0,0,0,0,0,0,0,0,0,0,0,0,0],"id":10,"left_children":[1,3,5,7,9,11,13,15,-1,17,-1,19,21,23,25,27,29,-1,-1,31,33,35,37,39,41,-1,43,45,47,49,51,53,55,57,59,61,63,65,67,-1,-1,69,71,-1,-1,-1,-1,-1,-1,-1,-1,-1,-1,-1,-1,-1,-1,-1,-1,-1,-1,-1,-1,-1,-1,-1,-1,-1,-1,-1,-1,-1,-1],"loss_changes":[5.920905E0,2.4961529E0,9.907238E0,2.6990027E0,3.980322E-1,1.4860223E1,4.9402347E0,1.7006859E0,0E0,2.2911072E-1,0E0,7.795358E0,2.0211454E1,3.2135918E0,2.4195719E0,2.8298848E0,7.6740146E-1,0E0,0E0,1.0602065E1,8.364822E0,2.1689312E1,3.0207705E0,4.855306E-1,2.7322824E0,0E0,2.8515148E-1,1.0794231E0,2.723677E0,4.7088152E-1,1.5178053E0,3.9477935E0,8.756535E0,7.974637E0,5.8243134E1,1.0311333E1,9.250807E0,1.5269647E0,3.1116219E0,0E0,0E0,7.136812E0,9.242321E0,0E0,0E0,0E0,0E0,0E0,0E0,0E0,0E0,0E0,0E0,0E0,0E0,0E0,0E0,0E0,0E0,0E0,0E0,0E0,0E0,0E0,0E0,0E0,0E0,0E0,0E0,0E0,0E0,0E0,0E0],"parents":[2147483647,0,0,1,1,2,2,3,3,4,4,5,5,6,6,7,7,9,9,11,11,12,12,13,13,14,14,15,15,16,16,19,19,20,20,21,21,22,22,23,23,24,24,26,26,27,27,28,28,29,29,30,30,31,31,32,32,33,33,34,34,35,35,36,36,37,37,38,38,41,41,42,42],"right_children":[2,4,6,8,10,12,14,16,-1,18,-1,20,22,24,26,28,30,-1,-1,32,34,36,38,40,42,-1,44,46,48,50,52,54,56,58,60,62,64,66,68,-1,-1,70,72,-1,-1,-1,-1,-1,-1,-1,-1,-1,-1,-1,-1,-1,-1,-1,-1,-1,-1,-1,-1,-1,-1,-1,-1,-1,-1,-1,-1,-1,-1],"split_conditions":[4.3264347E1,4.0296288E1,1.9885135E2,6.6266665E0,1.8720667E1,1.9367131E2,2.1389418E1,4.3456674E0,-3.909769E-1,9.6666664E-1,-1.7670572E-3,2.24E0,9.84775E0,1.9960413E2,1.64E0,3.1633334E0,1.1E0,-2.881804E-2,-2.1354128E-1,1.5273505E1,5.4581666E0,1.3333334E0,1.9840375E2,1.0481084E1,1.4208165E1,-4.0744282E-2,2.2337334E1,-5.716833E0,3.4066665E0,1.0233333E0,6.8019176E0,1.4412334E1,1.5349684E1,2.3333335E0,6.383167E0,1E-1,2E-1,1.594775E1,1E-1,-8.429596E-2,-2.885113E-1,1.7673029E1,8.85E0,1.6526568E-1,4.2379248E-1,-1.2747747E-1,-8.057586E-3,3.9357278E-1,-8.063919E-3,-6.106971E-2,4.1567244E-2,-2.496404E-1,-7.178376E-2,-1.1517885E-1,9.326384E-3,4.857115E-1,3.5032086E-2,4.725795E-1,-2.6506849E-2,1.247045E0,8.3116665E-2,3.0266187E-1,1.3962533E0,-2.710597E-1,3.6102962E-1,-1.243316E-1,7.262423E-2,-4.555941E-2,4.1742444E-1,3.173278E-2,-2.7725367E-2,-4.6791136E-2,6.0204685E-1],"split_indices":[4,4,4,0,1,4,1,1,0,0,0,0,1,4,0,0,0,0,0,3,1,0,4,1,1,0,1,1,0,0,1,1,3,0,1,2,2,1,2,0,0,3,0,0,0,0,0,0,0,0,0,0,0,0,0,0,0,0,0,0,0,0,0,0,0,0,0,0,0,0,0,0,0],"split_type":[0,0,0,0,0,0,0,0,0,0,0,0,0,0,0,0,0,0,0,0,0,0,0,0,0,0,0,0,0,0,0,0,0,0,0,0,0,0,0,0,0,0,0,0,0,0,0,0,0,0,0,0,0,0,0,0,0,0,0,0,0,0,0,0,0,0,0,0,0,0,0,0,0],"sum_hessian":[1.539E3,1.15E2,1.424E3,1.03E2,1.2E1,4.86E2,9.38E2,1.02E2,1E0,1.1E1,1E0,4.56E2,3E1,9.31E2,7E0,5.9E1,4.3E1,1E0,1E1,2.51E2,2.05E2,1.3E1,1.7E1,6E0,9.25E2,2E0,5E0,5.4E1,5E0,1.7E1,2.6E1,1.06E2,1.45E2,7.4E1,1.31E2,4E0,9E0,1.3E1,4E0,3E0,3E0,7.3E2,1.95E2,3E0,2E0,7E0,4.7E1,2E0,3E0,1.2E1,5E0,5E0,2.1E1,7.3E1,3.3E1,3E0,1.42E2,2E0,7.2E1,3E0,1.28E2,2E0,2E0,2E0,7E0,8E0,5E0,2E0,2E0,3.34E2,3.96E2,1.94E2,1E0],"tree_param":{"num_deleted":"0","num_feature":"5","num_nodes":"73","size_leaf_vector":"1"}},{"base_weights":[1.26372855E-2,-5.727734E-3,1.5969834E-1,-2.5438145E-3,-6.253189E-1,8.204555E-2,7.1045417E-1,-6.307907E-3,6.362583E-1,-6.0973547E-2,-4.072365E-1,3.460781E-1,-1.504033E-1,3.0562857E-1,2.3545558E0,2.6718182E-3,-2.5124815E-1,-1.5369795E-1,2.0040848E0,-3.0020928E-1,5.9576012E-2,8.5193914E-1,8.593762E-2,1.5906473E-1,-4.415537E-1,1.5888431E0,-5.693721E-2,8.2348794E-1,1.7750174E-1,-7.6881447E-3,7.0700866E-1,2.9341084E-1,-3.8446206E-1,2.2368643E-1,-3.0609298E-1,1.090565E0,-1.8872674E-1,-1.4772178E-3,-1.3361697E-1,3.9048597E-1,1.3617941E0,4.6095857E-1,-1.5444024E-1,-4.48907E-2,4.3764505E-1,-1.4932382E0,-2.5907642E-1,1.09290935E-1,5.6267667E-1,-5.591497E-1,3.3999887E-1,3.1824633E-1,-3.2993874E-3,-1.4606556E-1,3.5045308E-1,7.703642E-3,4.054499E-1,-2.039783E-1,-2.9648496E-2,1.7468499E-1,-3.4600766E-3,5.4229444E-1,1.096493E-3,-6.60298E-2,5.94755E-1,-1.2818639E-1,2.1789306E-1,-3.7973693E-1,3.553838E-2,-1.0290644E-1,3.7684053E-2,5.006861E-1,1.637467E-2,-3.1915892E-2,-5.247994E-1,2.508784E-1,-1.2515576E-1,-7.5089694E-3,-2.303375E-1,2.756288E-1,1.301579E-2],"categories":[],"categories_nodes":[],"categories_segments":[],"categories_sizes":[],"default_left":[0,0,0,0,0,0,0,0,0,0,0,0,0,0,0,0,0,0,0,0,0,0,0,0,0,0,0,0,0,0,0,0,0,0,0,0,0,0,0,0,0,0,0,0,0,0,0,0,0,0,0,0,0,0,0,0,0,0,0,0,0,0,0,0,0,0,0,0,0,0,0,0,0,0,0,0,0,0,0,0,0],"id":11,"left_children":[1,3,5,7,9,11,13,15,17,19,-1,21,23,25,27,29,31,33,35,37,-1,39,41,43,45,47,49,-1,-1,51,53,55,57,59,-1,-1,-1,-1,-1,61,63,65,67,69,71,73,75,-1,-1,77,79,-1,-1,-1,-1,-1,-1,-1,-1,-1,-1,-1,-1,-1,-1,-1,-1,-1,-1,-1,-1,-1,-1,-1,-1,-1,-1,-1,-1,-1,-1],"loss_changes":[4.1601143E0,2.701047E0,7.254991E0,3.2837653E0,2.8094745E0,9.319535E0,1.3257444E1,2.9853873E0,8.9522085E0,3.70098E-1,0E0,9.270027E0,7.368477E0,8.464958E0,1.128828E0,9.56438E0,3.5955002E0,2.1905043E0,1.5172032E1,1.2641594E-1,0E0,5.1148186E0,4.398234E0,2.2923648E0,7.673297E0,7.212429E-1,3.1803043E0,0E0,0E0,4.5809093E0,1.10299E1,2.7981377E0,3.2242064E0,4.2846155E-1,0E0,0E0,0E0,0E0,0E0,7.6682243E0,1.1237436E1,4.788598E0,9.248616E0,1.2630695E0,7.92727E0,1.9448748E0,6.756656E0,0E0,0E0,7.608607E-1,1.505158E0,0E0,0E0,0E0,0E0,0E0,0E0,0E0,0E0,0E0,0E0,0E0,0E0,0E0,0E0,0E0,0E0,0E0,0E0,0E0,0E0,0E0,0E0,0E0,0E0,0E0,0E0,0E0,0E0,0E0,0E0],"parents":[2147483647,0,0,1,1,2,2,3,3,4,4,5,5,6,6,7,7,8,8,9,9,11,11,12,12,13,13,14,14,15,15,16,16,17,17,18,18,19,19,21,21,22,22,23,23,24,24,25,25,26,26,29,29,30,30,31,31,32,32,33,33,39,39,40,40,41,41,42,42,43,43,44,44,45,45,46,46,49,49,50,50],"right_children":[2,4,6,8,10,12,14,16,18,20,-1,22,24,26,28,30,32,34,36,38,-1,40,42,44,46,48,50,-1,-1,52,54,56,58,60,-1,-1,-1,-1,-1,62,64,66,68,70,72,74,76,-1,-1,78,80,-1,-1,-1,-1,-1,-1,-1,-1,-1,-1,-1,-1,-1,-1,-1,-1,-1,-1,-1,-1,-1,-1,-1,-1,-1,-1,-1,-1,-1,-1],"split_conditions":[4.5833335E0,4.4500003E0,6.3E0,4.3333335E0,4.4999995E0,4E-1,2.3143827E1,3.78E0,2.2644165E0,6.383167E0,-4.072365E-1,1.8700114E2,5.612334E0,1.3416803E2,1.4612332E1,3.65E0,1.3644166E0,1.8185835E0,4.6102505E0,-1.4251665E0,5.9576012E-2,7.0206676E0,1.5111424E1,1.6965895E1,7.858168E0,4.6366663E0,1.8422476E2,8.2348794E-1,1.7750174E-1,7.42159E0,2.7706664E0,3.7000003E0,2.0122923E2,1.0594036E1,-3.0609298E-1,1.090565E0,-1.8872674E-1,-1.4772178E-3,-1.3361697E-1,1.2181625E1,1.191812E1,2.2102497E0,1.5459054E1,5.7066665E0,1.7673029E1,6.099834E0,9.570668E0,1.09290935E-1,5.6267667E-1,1.4612631E2,2.0988875E2,3.1824633E-1,-3.2993874E-3,-1.4606556E-1,3.5045308E-1,7.703642E-3,4.054499E-1,-2.039783E-1,-2.9648496E-2,1.7468499E-1,-3.4600766E-3,5.4229444E-1,1.096493E-3,-6.60298E-2,5.94755E-1,-1.2818639E-1,2.1789306E-1,-3.7973693E-1,3.553838E-2,-1.0290644E-1,3.7684053E-2,5.006861E-1,1.637467E-2,-3.1915892E-2,-5.247994E-1,2.508784E-1,-1.2515576E-1,-7.5089694E-3,-2.303375E-1,2.756288E-1,1.301579E-2],"split_indices":[0,0,2,0,2,2,3,0,1,1,0,4,1,4,1,0,1,1,1,1,0,1,3,3,1,0,4,0,0,3,1,2,4,3,0,0,0,0,0,3,3,1,3,0,3,1,1,0,0,4,4,0,0,0,0,0,0,0,0,0,0,0,0,0,0,0,0,0,0,0,0,0,0,0,0,0,0,0,0,0,0],"split_type":[0,0,0,0,0,0,0,0,0,0,0,0,0,0,0,0,0,0,0,0,0,0,0,0,0,0,0,0,0,0,0,0,0,0,0,0,0,0,0,0,0,0,0,0,0,0,0,0,0,0,0,0,0,0,0,0,0,0,0,0,0,0,0,0,0,0,0,0,0,0,0,0,0,0,0,0,0,0,0,0,0],"sum_hessian":[1.539E3,1.369E3,1.7E2,1.363E3,6E0,1.5E2,2E1,1.356E3,7E0,4E0,2E0,7E1,8E1,1.7E1,3E0,1.309E3,4.7E1,5E0,2E0,2E0,2E0,2.3E1,4.7E1,3.9E1,4.1E1,3E0,1.4E1,2E0,1E0,1.291E3,1.8E1,9E0,3.8E1,4E0,1E0,1E0,1E0,1E0,1E0,1.3E1,1E1,1.8E1,2.9E1,2.3E1,1.6E1,5E0,3.6E1,1E0,2E0,6E0,8E0,3E0,1.288E3,5E0,1.3E1,8E0,1E0,1.8E1,2E1,1E0,3E0,2E0,1.1E1,3E0,7E0,4E0,1.4E1,5E0,2.4E1,8E0,1.5E1,3E0,1.3E1,1E0,4E0,4E0,3.2E1,2E0,4E0,2E0,6E0],"tree_param":{"num_deleted":"0","num_feature":"5","num_nodes":"81","size_leaf_vector":"1"}},{"base_weights":[1.1148259E-2,3.5139605E-2,-6.84509E-2,-1.521867E-1,5.4660022E-2,4.3058023E-1,-8.259418E-2,-4.7143534E-2,-3.4759718E-1,1.8165538E-1,2.0939628E-2,2.8684282E-1,6.8747334E-2,-9.4115265E-2,1.4762776E-1,-1.2904751E-1,4.899467E-1,-1.1437346E-1,-5.870762E-1,9.6455306E-2,1.1003268E0,-1.3632038E-1,4.6761904E-2,-2.1572036E-1,3.360282E-1,-7.889991E-2,-3.636083E-1,1.03772394E-1,-3.080402E-1,2.5211746E-1,2.3509836E-1,-2.2474153E-1,3.139482E-1,-8.08945E-1,-1.8088843E-1,3.8816655E-1,-9.8012604E-2,2.1933732E0,6.6262287E-1,-1.1989971E-1,-3.13557E-1,3.2798797E-1,8.697573E-3,-6.0651903E-3,-8.224469E-2,2.9727478E-2,1.1459296E-1,-8.7324224E-2,6.189823E-1,3.3381665E-1,-5.253477E-1,-3.9784767E-2,5.1361445E-2,-2.2201668E-2,-1.8317561E-1,1.3910392E-1,2.2426981E-2,-1.4464808E-1,8.91196E-3,-2.6451737E-1,-1.2556314E-3,-8.718261E-2,-1.7080357E-2,7.359919E-2,1.8151069E0,-3.8939834E-2,5.765335E-1,1.1383654E0,-4.1678656E-2,2.6737306E-1,-5.6668364E-2,-4.5962676E-2,2.6281258E-1,5.1550977E-2,4.5395103E-1,2.4454596E-2,-4.531195E-2,-4.6079803E-2,-9.020863E-3,-9.106481E-3,3.850491E-1,1.8411088E-1,-7.587632E-2,-1.9582452E-1,-3.5426796E-3],"categories":[],"categories_nodes":[],"categories_segments":[],"categories_sizes":[],"default_left":[0,0,0,0,0,0,0,0,0,0,0,0,0,0,0,0,0,0,0,0,0,0,0,0,0,0,0,0,0,0,0,0,0,0,0,0,0,0,0,0,0,0,0,0,0,0,0,0,0,0,0,0,0,0,0,0,0,0,0,0,0,0,0,0,0,0,0,0,0,0,0,0,0,0,0,0,0,0,0,0,0,0,0,0,0],"id":12,"left_children":[1,3,5,7,9,11,13,15,17,19,21,-1,23,25,-1,27,29,31,33,35,37,39,41,43,45,47,49,51,53,55,-1,57,-1,59,61,63,65,67,69,71,-1,73,75,-1,-1,-1,-1,77,79,81,83,-1,-1,-1,-1,-1,-1,-1,-1,-1,-1,-1,-1,-1,-1,-1,-1,-1,-1,-1,-1,-1,-1,-1,-1,-1,-1,-1,-1,-1,-1,-1,-1,-1,-1],"loss_changes":[2.943329E0,4.337837E0,2.5552459E0,2.2825851E0,4.59114E0,1.8359258E0,2.3504272E0,3.3184738E0,2.1110892E0,1.7504812E1,3.4540033E0,0E0,6.047175E-1,1.3736587E0,0E0,2.740715E0,5.0096416E-1,2.9257677E0,1.565959E0,1.1780839E1,7.6368046E0,1.6655917E0,7.8115654E0,4.0149316E-2,5.696714E-3,1.9647851E0,2.2057896E0,4.849712E-1,2.5746367E0,2.2799692E-1,0E0,1.3243171E0,0E0,6.9914865E-1,9.225637E-2,6.5643074E1,8.274794E0,1.9199322E1,3.0884676E0,4.081925E0,0E0,1.5840881E1,7.5031376E0,0E0,0E0,0E0,0E0,1.2172298E0,1.7649369E0,8.120976E-1,9.7366905E-1,0E0,0E0,0E0,0E0,0E0,0E0,0E0,0E0,0E0,0E0,0E0,0E0,0E0,0E0,0E0,0E0,0E0,0E0,0E0,0E0,0E0,0E0,0E0,0E0,0E0,0E0,0E0,0E0,0E0,0E0,0E0,0E0,0E0,0E0],"parents":[2147483647,0,0,1,1,2,2,3,3,4,4,5,5,6,6,7,7,8,8,9,9,10,10,12,12,13,13,15,15,16,16,17,17,18,18,19,19,20,20,21,21,22,22,23,23,24,24,25,25,26,26,27,27,28,28,29,29,31,31,33,33,34,34,35,35,36,36,37,37,38,38,39,39,41,41,42,42,47,47,48,48,49,49,50,50],"right_children":[2,4,6,8,10,12,14,16,18,20,22,-1,24,26,-1,28,30,32,34,36,38,40,42,44,46,48,50,52,54,56,-1,58,-1,60,62,64,66,68,70,72,-1,74,76,-1,-1,-1,-1,78,80,82,84,-1,-1,-1,-1,-1,-1,-1,-1,-1,-1,-1,-1,-1,-1,-1,-1,-1,-1,-1,-1,-1,-1,-1,-1,-1,-1,-1,-1,-1,-1,-1,-1,-1,-1],"split_conditions":[2.7935843E2,-9.084999E-1,-9.110583E0,-2.1730833E0,3.0060833E0,1.3281023E1,1.9224833E1,2.5666666E0,1.6166637E2,2.7706664E0,8.106951E1,2.8684282E-1,1.420062E1,4.72E0,1.4762776E-1,1.44E0,-3.3293333E0,1.5379005E2,2.2983604E2,1.645007E1,1.2733333E0,9.596666E0,1.374943E2,1.3450708E1,1.2666667E0,4.5833335E0,2.9177725E2,1.8217197E1,3E-1,1.1525623E1,2.3509836E-1,1.24811535E1,3.139482E-1,3.5066667E0,1.5459054E1,1.6327497E1,3.5728977E1,2.8415E0,4.3999996E0,7.3233333E0,-3.13557E-1,4.72E0,1.6000001E0,-6.0651903E-3,-8.224469E-2,2.9727478E-2,1.1459296E-1,1E-1,4.006084E0,8.233334E0,3.3826105E2,-3.9784767E-2,5.1361445E-2,-2.2201668E-2,-1.8317561E-1,1.3910392E-1,2.2426981E-2,-1.4464808E-1,8.91196E-3,-2.6451737E-1,-1.2556314E-3,-8.718261E-2,-1.7080357E-2,7.359919E-2,1.8151069E0,-3.8939834E-2,5.765335E-1,1.1383654E0,-4.1678656E-2,2.6737306E-1,-5.6668364E-2,-4.5962676E-2,2.6281258E-1,5.1550977E-2,4.5395103E-1,2.4454596E-2,-4.531195E-2,-4.6079803E-2,-9.020863E-3,-9.106481E-3,3.850491E-1,1.8411088E-1,-7.587632E-2,-1.9582452E-1,-3.5426796E-3],"split_indices":[4,1,1,1,1,3,1,0,4,1,4,0,3,0,0,0,1,4,4,3,0,0,4,3,0,0,4,4,2,3,0,3,0,0,3,3,3,1,2,0,0,0,2,0,0,0,0,2,1,0,4,0,0,0,0,0,0,0,0,0,0,0,0,0,0,0,0,0,0,0,0,0,0,0,0,0,0,0,0,0,0,0,0,0,0],"split_type":[0,0,0,0,0,0,0,0,0,0,0,0,0,0,0,0,0,0,0,0,0,0,0,0,0,0,0,0,0,0,0,0,0,0,0,0,0,0,0,0,0,0,0,0,0,0,0,0,0,0,0,0,0,0,0,0,0,0,0,0,0,0,0,0,0,0,0,0,0,0,0,0,0,0,0,0,0,0,0,0,0,0,0,0,0],"sum_hessian":[1.539E3,1.183E3,3.56E2,1.11E2,1.072E3,9E0,3.47E2,7.3E1,3.8E1,2.24E2,8.48E2,3E0,6E0,3.41E2,6E0,6.4E1,9E0,2E1,1.8E1,2.06E2,1.8E1,1.19E2,7.29E2,3E0,3E0,3.24E2,1.7E1,2.8E1,3.6E1,6E0,3E0,1.9E1,1E0,1.1E1,7E0,8.2E1,1.24E2,4E0,1.4E1,1.18E2,1E0,8.6E1,6.43E2,1E0,2E0,1E0,2E0,3.21E2,3E0,3E0,1.4E1,6E0,2.2E1,2.1E1,1.5E1,2E0,4E0,9E0,1E1,1E1,1E0,3E0,4E0,8.1E1,1E0,1.23E2,1E0,2E0,2E0,1.1E1,3E0,1.15E2,3E0,7.7E1,9E0,4.42E2,2.01E2,1.48E2,1.73E2,2E0,1E0,2E0,1E0,1.1E1,3E0],"tree_param":{"num_deleted":"0","num_feature":"5","num_nodes":"85","size_leaf_vector":"1"}},{"base_weights":[1.0954957E-2,-2.0544481E-1,1.7159387E-2,2.2507909E-1,-2.5537238E-1,7.0375836E-1,1.3463913E-2,-3.5273965E-2,3.401388E-1,-3.8434058E-1,-1.3824508E-1,7.602594E-1,8.0238715E-2,-1.8309179E-1,2.1404477E-2,1.4581175E-1,3.8847685E-2,-4.51894E-1,-3.493023E-2,-1.8984294E-1,2.5182226E-1,-2.555936E-1,6.13213E-1,-3.318793E-2,-3.6631238E-1,3.6967816E-3,1.2575994E-1,-1.3599439E-1,-5.19536E-1,-1.5108173E-1,4.702864E-2,-8.509263E-2,-8.582519E-2,9.8231114E-2,1.508891E-2,-9.4424106E-2,-3.3372708E-2,-7.909138E-3,2.8385502E-1,5.4941654E-2,-1.316784E-1,-5.9123063E-1,-1.6195698E-1,1.6693309E-2,-2.4936391E-1,7.072289E-2,8.2918847E-1,-1.9106943E-2,-5.2936222E-2,-1.7153642E-1,-5.1655184E-2,-5.984493E-2,-8.141845E-3,-5.8182716E-2,1.1381772E-2,1.1172043E-1,-4.04551E-3,-2.1756494E-1,-1.009126E-1,6.287319E-2,-1.53974E-1,1.6787762E-2,-1.7225962E-2,5.8533046E-3,-1.6123642E-1,3.6960274E-1,1.0044741E-2,4.99676E-1,1.4438702E-1],"categories":[],"categories_nodes":[],"categories_segments":[],"categories_sizes":[],"default_left":[0,0,0,0,0,0,0,0,0,0,0,0,0,0,0,0,0,0,0,0,0,0,0,0,0,0,0,0,0,0,0,0,0,0,0,0,0,0,0,0,0,0,0,0,0,0,0,0,0,0,0,0,0,0,0,0,0,0,0,0,0,0,0,0,0,0,0,0,0],"id":13,"left_children":[1,3,5,7,9,11,13,-1,15,17,19,-1,21,23,25,-1,-1,27,29,31,33,35,37,39,41,43,45,47,49,51,-1,53,-1,-1,-1,-1,-1,-1,-1,55,-1,57,59,61,63,65,67,-1,-1,-1,-1,-1,-1,-1,-1,-1,-1,-1,-1,-1,-1,-1,-1,-1,-1,-1,-1,-1,-1],"loss_changes":[2.0711865E0,9.817641E-1,3.7914126E0,2.3712465E-1,5.3598905E-1,8.927179E0,2.3310163E0,0E0,5.9995323E-2,4.0908456E-1,4.905927E-1,0E0,1.4096633E0,1.5808403E0,2.6494162E0,0E0,0E0,2.4986744E-1,1.1274531E-1,1.7728198E-1,2.9246122E-2,7.6811314E-3,6.638253E-1,1.2041196E0,1.0992904E0,4.0396557E0,7.994001E0,4.6335906E-4,1.19345665E-1,1.2583062E-2,0E0,1.546699E-1,0E0,0E0,0E0,0E0,0E0,0E0,0E0,6.13258E-1,0E0,1.6581917E-1,2.065307E0,3.4022338E0,4.6581097E0,8.348626E0,3.5630932E0,0E0,0E0,0E0,0E0,0E0,0E0,0E0,0E0,0E0,0E0,0E0,0E0,0E0,0E0,0E0,0E0,0E0,0E0,0E0,0E0,0E0,0E0],"parents":[2147483647,0,0,1,1,2,2,3,3,4,4,5,5,6,6,8,8,9,9,10,10,12,12,13,13,14,14,17,17,18,18,19,19,20,20,21,21,22,22,23,23,24,24,25,25,26,26,27,27,28,28,29,29,31,31,39,39,41,41,42,42,43,43,44,44,45,45,46,46],"right_children":[2,4,6,8,10,12,14,-1,16,18,20,-1,22,24,26,-1,-1,28,30,32,34,36,38,40,42,44,46,48,50,52,-1,54,-1,-1,-1,-1,-1,-1,-1,56,-1,58,60,62,64,66,68,-1,-1,-1,-1,-1,-1,-1,-1,-1,-1,-1,-1,-1,-1,-1,-1,-1,-1,-1,-1,-1,-1],"split_conditions":[6.666667E-1,2.7706664E0,6.7333335E-1,5.9000003E-1,2.5006189E2,1.3910169E1,2.3323118E1,-3.5273965E-2,6.2333333E-1,1.7458168E1,3.1E0,7.602594E-1,2.4192429E1,2.0666666E0,4.3E0,1.4581175E-1,3.8847685E-2,6.840926E1,5.9000003E-1,1E-1,5.2666664E-1,1E-1,1.6081667E0,2.1659916E1,2.6666667E0,3.2000003E0,1.8993586E1,6.2333333E-1,1.8218275E1,5.566667E-1,4.702864E-2,3.0892126E2,-8.582519E-2,9.8231114E-2,1.508891E-2,-9.4424106E-2,-3.3372708E-2,-7.909138E-3,2.8385502E-1,-4.0522504E0,-1.316784E-1,4E-1,1.3273302E1,1.1256084E1,2.14E0,1.1298495E1,1.1133124E2,-1.9106943E-2,-5.2936222E-2,-1.7153642E-1,-5.1655184E-2,-5.984493E-2,-8.141845E-3,-5.8182716E-2,1.1381772E-2,1.1172043E-1,-4.04551E-3,-2.1756494E-1,-1.009126E-1,6.287319E-2,-1.53974E-1,1.6787762E-2,-1.7225962E-2,5.8533046E-3,-1.6123642E-1,3.6960274E-1,1.0044741E-2,4.99676E-1,1.4438702E-1],"split_indices":[0,1,0,0,4,3,4,0,0,1,2,0,3,0,2,0,0,4,0,2,0,2,1,3,0,2,1,0,3,0,0,4,0,0,0,0,0,0,0,1,0,2,4,1,0,3,4,0,0,0,0,0,0,0,0,0,0,0,0,0,0,0,0,0,0,0,0,0,0],"split_type":[0,0,0,0,0,0,0,0,0,0,0,0,0,0,0,0,0,0,0,0,0,0,0,0,0,0,0,0,0,0,0,0,0,0,0,0,0,0,0,0,0,0,0,0,0,0,0,0,0,0,0,0,0,0,0,0,0,0,0,0,0,0,0,0,0,0,0,0,0],"sum_hessian":[1.539E3,4.2E1,1.497E3,4E0,3.8E1,7E0,1.49E3,1E0,3E0,1.7E1,2.1E1,1E0,6E0,5.7E1,1.433E3,1E0,2E0,1.4E1,3E0,1.9E1,2E0,4E0,2E0,3.2E1,2.5E1,1.226E3,2.07E2,3E0,1.1E1,2E0,1E0,1E1,9E0,1E0,1E0,2E0,2E0,1E0,1E0,2.7E1,5E0,1.1E1,1.4E1,1.167E3,5.9E1,1.93E2,1.4E1,2E0,1E0,9E0,2E0,1E0,1E0,5E0,5E0,4E0,2.3E1,6E0,5E0,7E0,7E0,7.63E2,4.04E2,3.1E1,2.8E1,5E0,1.88E2,3E0,1.1E1],"tree_param":{"num_deleted":"0","num_feature":"5","num_nodes":"69","size_leaf_vector":"1"}},{"base_weights":[8.419519E-3,2.1930326E-2,-8.827376E-2,1.6080352E-2,4.3150586E-1,-9.965998E-2,3.0785015E-1,5.836188E-2,-2.5658835E-2,8.325577E-2,1.7166297E0,-2.1945652E-1,-2.341163E-2,2.0103535E-2,2.0510484E-1,-2.9527817E-2,2.540901E-1,-2.7602842E-1,1.8740046E-1,6.479955E-1,5.7984624E-2,9.5109716E-2,-3.3189854E-1,2.03658E-1,-1.7019743E-1,4.6280295E-2,-4.8608252E-1,7.679444E-1,3.325607E-2,-3.5111755E-1,-2.061795E-2,-1.0253228E-1,-1.1818636E-2,4.3155244E-1,3.09382E-2,-3.628879E-1,6.053467E-1,-9.6687907E-1,-1.6561025E-1,4.7469735E-2,1.8317673E0,1.2550464E-1,-1.9942383E-1,-1.5972165E-2,3.9392453E-2,-8.314798E-2,-3.0406913E-1,1.00434974E-1,9.1201746E-1,-9.4860375E-2,6.995732E-2,-5.067637E-3,-2.0503983E-1,-1.1212342E-2,3.869395E-2,6.016249E-3,1.5882404E-1,4.4396132E-2,-2.7689504E-2,-1.7200154E-1,1.3932331E-1,2.6593864E-2,-3.63387E-1,-1.4747079E-1,2.3688057E-2,7.422067E-2,-6.542933E-2,-1.3735575E-2,7.4186397E-1,7.4607275E-2,-8.717332E-3,-3.1117285E-2,-7.699289E-2],"categories":[],"categories_nodes":[],"categories_segments":[],"categories_sizes":[],"default_left":[0,0,0,0,0,0,0,0,0,0,0,0,0,0,0,0,0,0,0,0,0,0,0,0,0,0,0,0,0,0,0,0,0,0,0,0,0,0,0,0,0,0,0,0,0,0,0,0,0,0,0,0,0,0,0,0,0,0,0,0,0,0,0,0,0,0,0,0,0,0,0,0,0],"id":14,"left_children":[1,3,5,7,9,11,-1,13,15,17,19,21,23,25,27,29,-1,31,33,-1,-1,35,37,39,41,43,45,47,49,51,53,-1,-1,55,57,59,-1,61,63,65,67,69,71,-1,-1,-1,-1,-1,-1,-1,-1,-1,-1,-1,-1,-1,-1,-1,-1,-1,-1,-1,-1,-1,-1,-1,-1,-1,-1,-1,-1,-1,-1],"loss_changes":[2.0137985E0,3.2324615E0,2.5005383E0,2.3557363E0,8.360427E0,1.7121081E0,0E0,3.7180538E0,2.2937984E0,6.504085E-1,2.28405E0,2.6136105E0,3.901011E0,7.0054097E0,1.32255535E1,1.9125265E0,0E0,4.8766166E-2,4.8325592E-1,0E0,0E0,1.8344196E1,5.5417247E0,1.1610459E1,6.38633E-1,4.254938E0,2.584353E0,3.0476368E1,7.479822E0,1.9878831E0,1.641721E0,0E0,0E0,1.9073129E-1,1.4348127E-1,3.2260587E0,0E0,2.9451761E0,3.5464916E0,2.3370671E0,4.928111E0,1.4050615E-1,3.2930994E-1,0E0,0E0,0E0,0E0,0E0,0E0,0E0,0E0,0E0,0E0,0E0,0E0,0E0,0E0,0E0,0E0,0E0,0E0,0E0,0E0,0E0,0E0,0E0,0E0,0E0,0E0,0E0,0E0,0E0,0E0],"parents":[2147483647,0,0,1,1,2,2,3,3,4,4,5,5,7,7,8,8,9,9,10,10,11,11,12,12,13,13,14,14,15,15,17,17,18,18,21,21,22,22,23,23,24,24,25,25,26,26,27,27,28,28,29,29,30,30,33,33,34,34,35,35,37,37,38,38,39,39,40,40,41,41,42,42],"right_children":[2,4,6,8,10,12,-1,14,16,18,20,22,24,26,28,30,-1,32,34,-1,-1,36,38,40,42,44,46,48,50,52,54,-1,-1,56,58,60,-1,62,64,66,68,70,72,-1,-1,-1,-1,-1,-1,-1,-1,-1,-1,-1,-1,-1,-1,-1,-1,-1,-1,-1,-1,-1,-1,-1,-1,-1,-1,-1,-1,-1,-1],"split_conditions":[2.4363249E1,2.3904108E1,2.0308168E1,2.181292E2,5.7966666E0,2.3154922E2,3.0785015E-1,1.9367131E2,2.1E1,5.163249E1,2.4192429E1,1.5540018E2,2.5987167E2,1.8824821E2,1.4113653E1,2.207898E2,2.540901E-1,1.81E0,1E-1,6.479955E-1,5.7984624E-2,1.2859091E2,1.8236713E2,2.581333E2,-3.0751667E0,1.5042659E1,2.7000003E0,1.3830749E1,1.5876775E1,1.3E0,1.7178999E1,-1.0253228E-1,-1.1818636E-2,8.2E-1,2.4666039E2,4.81025E0,6.053467E-1,1.29E0,2.7748037E1,1.7433333E0,9.0000004E-1,3.242907E2,2.7469147E2,-1.5972165E-2,3.9392453E-2,-8.314798E-2,-3.0406913E-1,1.00434974E-1,9.1201746E-1,-9.4860375E-2,6.995732E-2,-5.067637E-3,-2.0503983E-1,-1.1212342E-2,3.869395E-2,6.016249E-3,1.5882404E-1,4.4396132E-2,-2.7689504E-2,-1.7200154E-1,1.3932331E-1,2.6593864E-2,-3.63387E-1,-1.4747079E-1,2.3688057E-2,7.422067E-2,-6.542933E-2,-1.3735575E-2,7.4186397E-1,7.4607275E-2,-8.717332E-3,-3.1117285E-2,-7.699289E-2],"split_indices":[3,3,1,4,0,4,0,4,2,4,3,4,4,4,3,4,0,0,2,0,0,4,4,4,1,3,2,3,3,2,1,0,0,0,4,1,0,0,3,0,0,4,4,0,0,0,0,0,0,0,0,0,0,0,0,0,0,0,0,0,0,0,0,0,0,0,0,0,0,0,0,0,0],"split_type":[0,0,0,0,0,0,0,0,0,0,0,0,0,0,0,0,0,0,0,0,0,0,0,0,0,0,0,0,0,0,0,0,0,0,0,0,0,0,0,0,0,0,0,0,0,0,0,0,0,0,0,0,0,0,0,0,0,0,0,0,0,0,0,0,0,0,0,0,0,0,0,0,0],"sum_hessian":[1.539E3,1.351E3,1.88E2,1.333E3,1.8E1,1.87E2,1E0,6.62E2,6.71E2,1.5E1,3E0,7.2E1,1.15E2,5.26E2,1.36E2,6.69E2,2E0,3E0,1.2E1,2E0,1E0,1.9E1,5.3E1,4.5E1,7E1,5.01E2,2.5E1,3.1E1,1.05E2,1.7E1,6.52E2,2E0,1E0,4E0,8E0,1.6E1,3E0,1E1,4.3E1,4.2E1,3E0,6E0,6.4E1,2.31E2,2.7E2,1.9E1,6E0,2.7E1,4E0,3.8E1,6.7E1,9E0,8E0,5.87E2,6.5E1,1E0,3E0,4E0,4E0,1.3E1,3E0,2E0,8E0,1.8E1,2.5E1,2.4E1,1.8E1,1E0,2E0,3E0,3E0,2.5E1,3.9E1],"tree_param":{"num_deleted":"0","num_feature":"5","num_nodes":"73","size_leaf_vector":"1"}},{"base_weights":[7.5709554E-3,-2.6738746E-2,4.0689416E-2,-1.3655349E-2,-2.4914287E-1,-2.4803127E-1,5.290505E-2,-4.6061408E-2,3.6674533E-2,-4.044709E-1,7.502371E-1,3.5869747E-1,-3.2316518E-1,9.7426414E-2,-3.924844E-2,-1.7947105E-1,2.6698826E-2,1.5179002E-1,-5.1330242E-2,-5.9752062E-2,-5.6754583E-1,7.490506E-1,-9.844954E-2,-3.2181896E-2,1.6493359E-1,1.1368386E-1,-4.1891223E-1,4.9239244E-2,3.268511E-1,-4.3672204E-1,3.7049912E-3,-1.21526495E-1,-5.2161443E-1,1.3282926E0,8.009276E-3,-3.4871334E-4,4.5236528E-1,-8.515282E-2,2.3818633E-1,1.2285869E-1,-2.9327437E-1,1.3171965E-1,-6.688875E-1,7.964494E-2,-7.3118255E-2,1.2812251E-1,-3.4206566E-1,-5.720768E-1,2.7752843E-1,2.4434764E-2,5.2054197E-1,1.1257116E0,9.689204E-3,-7.411444E-1,6.358369E-2,2.584691E-2,-5.9458995E-1,-4.4428945E-2,1.3966621E-1,-2.536318E-1,-3.627942E-2,8.901699E-1,-6.2129546E-2,-2.0800285E-2,2.124913E-2,1.6181078E-2,-2.090869E-1,8.921068E-1,7.4045464E-2,-7.727608E-2,-1.2393067E-2,4.2662624E-2,1.543684E-1,-7.85248E-2,1.2179202E-1,-1.6304366E-1,4.1426912E-2,-2.290957E-2,1.13396145E-1,-2.7277547E-1,-1.1784396E-1,4.4003967E-3,3.1439826E-2,-1.2605388E-1,-2.7875664E-2,-1.2858841E-1,-2.7500924E-1,2.1316688E-1,-7.4402645E-2,3.977176E-2,-2.4507774E-2,1.0189176E-1,2.3161624E-1,7.5039256E-1,9.9370815E-2,-3.2428965E-2,2.2245054E-1,-3.6021665E-1,-1.3946061E-1,-5.8615845E-2,1.5026549E-1,-1.1203606E-2,1.4672187E-1,-1.9132717E-2,-2.7009702E-1],"categories":[],"categories_nodes":[],"categories_segments":[],"categories_sizes":[],"default_left":[0,0,0,0,0,0,0,0,0,0,0,0,0,0,0,0,0,0,0,0,0,0,0,0,0,0,0,0,0,0,0,0,0,0,0,0,0,0,0,0,0,0,0,0,0,0,0,0,0,0,0,0,0,0,0,0,0,0,0,0,0,0,0,0,0,0,0,0,0,0,0,0,0,0,0,0,0,0,0,0,0,0,0,0,0,0,0,0,0,0,0,0,0,0,0,0,0,0,0,0,0,0,0,0,0],"id":15,"left_children":[1,3,5,7,9,11,13,15,17,19,21,23,25,27,29,31,33,35,37,39,41,-1,43,-1,-1,45,47,49,51,53,55,57,59,61,63,65,67,69,71,73,75,77,79,81,-1,-1,83,85,87,89,91,93,95,97,99,101,103,-1,-1,-1,-1,-1,-1,-1,-1,-1,-1,-1,-1,-1,-1,-1,-1,-1,-1,-1,-1,-1,-1,-1,-1,-1,-1,-1,-1,-1,-1,-1,-1,-1,-1,-1,-1,-1,-1,-1,-1,-1,-1,-1,-1,-1,-1,-1,-1],"loss_changes":[1.750966E0,2.1993175E0,2.7782164E0,1.1694803E0,6.823181E0,1.5746677E0,3.0932317E0,4.2370076E0,2.8545218E0,2.0460439E0,9.1397E0,4.15129E-1,1.2606068E0,5.6000123E0,4.2015405E0,2.9897122E0,6.8736763E0,5.579113E0,1.5870337E0,5.9039927E-1,1.8597231E0,0E0,1.4877768E-1,0E0,0E0,1.003055E0,2.7188478E0,4.9089475E0,2.228548E1,3.7024264E0,2.9695382E0,2.1435761E0,2.7522855E0,1.0680166E1,1.3653783E0,3.1384864E0,2.0514318E1,1.0779934E0,3.7776363E-1,9.7736865E-1,7.226241E-1,2.3384325E-1,1.1027174E0,3.3661872E-3,0E0,0E0,1.934287E-2,5.957861E-1,1.3140854E0,4.612856E0,6.932645E-1,2.6493425E1,5.596768E0,1.3463755E0,1.2303443E0,6.3410807E0,1.2408824E0,0E0,0E0,0E0,0E0,0E0,0E0,0E0,0E0,0E0,0E0,0E0,0E0,0E0,0E0,0E0,0E0,0E0,0E0,0E0,0E0,0E0,0E0,0E0,0E0,0E0,0E0,0E0,0E0,0E0,0E0,0E0,0E0,0E0,0E0,0E0,0E0,0E0,0E0,0E0,0E0,0E0,0E0,0E0,0E0,0E0,0E0,0E0,0E0],"parents":[2147483647,0,0,1,1,2,2,3,3,4,4,5,5,6,6,7,7,8,8,9,9,10,10,11,11,12,12,13,13,14,14,15,15,16,16,17,17,18,18,19,19,20,20,22,22,25,25,26,26,27,27,28,28,29,29,30,30,31,31,32,32,33,33,34,34,35,35,36,36,37,37,38,38,39,39,40,40,41,41,42,42,43,43,46,46,47,47,48,48,49,49,50,50,51,51,52,52,53,53,54,54,55,55,56,56],"right_children":[2,4,6,8,10,12,14,16,18,20,22,24,26,28,30,32,34,36,38,40,42,-1,44,-1,-1,46,48,50,52,54,56,58,60,62,64,66,68,70,72,74,76,78,80,82,-1,-1,84,86,88,90,92,94,96,98,100,102,104,-1,-1,-1,-1,-1,-1,-1,-1,-1,-1,-1,-1,-1,-1,-1,-1,-1,-1,-1,-1,-1,-1,-1,-1,-1,-1,-1,-1,-1,-1,-1,-1,-1,-1,-1,-1,-1,-1,-1,-1,-1,-1,-1,-1,-1,-1,-1,-1],"split_conditions":[1.77E0,1.6866667E0,2.3323118E1,5E-1,7.4999995E0,3.8642662E0,1.9083395E1,2.1272948E2,2.049547E2,1.8024007E2,8.900002E0,-1.0468915E1,1.0365251E1,1.7309975E1,1.9681828E1,1.46E0,2.154146E2,1.7108224E2,1.6212332E1,1.7433333E0,-2.7480834E0,7.490506E-1,1.7333333E0,-3.2181896E-2,1.6493359E-1,1.3273302E1,1.4412334E1,2.0881086E1,1E-1,2.5146318E2,1.1006666E1,1.95665E1,8.145667E0,4.6102505E0,1.0266666E0,1.589247E2,1.7270891E2,2.3154922E2,1.9914217E1,1.6999999E0,1.7566667E0,1.7333333E0,1.6327497E1,1.7033334E0,-7.3118255E-2,1.2812251E-1,2.6666667E0,5.7102504E0,7.0000005E-1,6.629001E0,3.3433335E0,1.7654688E1,7.4999995E0,1.4378108E2,1.5235249E1,5.7966666E0,4E-1,-4.4428945E-2,1.3966621E-1,-2.536318E-1,-3.627942E-2,8.901699E-1,-6.2129546E-2,-2.0800285E-2,2.124913E-2,1.6181078E-2,-2.090869E-1,8.921068E-1,7.4045464E-2,-7.727608E-2,-1.2393067E-2,4.2662624E-2,1.543684E-1,-7.85248E-2,1.2179202E-1,-1.6304366E-1,4.1426912E-2,-2.290957E-2,1.13396145E-1,-2.7277547E-1,-1.1784396E-1,4.4003967E-3,3.1439826E-2,-1.2605388E-1,-2.7875664E-2,-1.2858841E-1,-2.7500924E-1,2.1316688E-1,-7.4402645E-2,3.977176E-2,-2.4507774E-2,1.0189176E-1,2.3161624E-1,7.5039256E-1,9.9370815E-2,-3.2428965E-2,2.2245054E-1,-3.6021665E-1,-1.3946061E-1,-5.8615845E-2,1.5026549E-1,-1.1203606E-2,1.4672187E-1,-1.9132717E-2,-2.7009702E-1],"split_indices":[0,0,4,2,2,4,3,4,4,4,2,1,3,3,3,0,4,4,1,0,1,0,0,0,0,4,1,1,2,4,0,1,1,1,0,4,4,4,3,0,0,0,3,0,0,0,0,1,2,1,0,3,2,4,1,0,2,0,0,0,0,0,0,0,0,0,0,0,0,0,0,0,0,0,0,0,0,0,0,0,0,0,0,0,0,0,0,0,0,0,0,0,0,0,0,0,0,0,0,0,0,0,0,0,0],"split_type":[0,0,0,0,0,0,0,0,0,0,0,0,0,0,0,0,0,0,0,0,0,0,0,0,0,0,0,0,0,0,0,0,0,0,0,0,0,0,0,0,0,0,0,0,0,0,0,0,0,0,0,0,0,0,0,0,0,0,0,0,0,0,0,0,0,0,0,0,0,0,0,0,0,0,0,0,0,0,0,0,0,0,0,0,0,0,0,0,0,0,0,0,0,0,0,0,0,0,0,0,0,0,0,0,0],"sum_hessian":[1.539E3,7.56E2,7.83E2,7.15E2,4.1E1,3.1E1,7.52E2,4.35E2,2.8E2,3.6E1,5E0,3E0,2.8E1,5.07E2,2.45E2,1.53E2,2.82E2,1.21E2,1.59E2,1.2E1,2.4E1,1E0,4E0,1E0,2E0,5E0,2.3E1,4.2E2,8.7E1,2.3E1,2.22E2,1.32E2,2.1E1,3E0,2.79E2,8.1E1,4E1,1.43E2,1.6E1,7E0,5E0,3E0,2.1E1,2E0,2E0,3E0,2E0,1.9E1,4E0,4E2,2E1,2.4E1,6.3E1,1.4E1,9E0,2.15E2,7E0,1.27E2,5E0,1.1E1,1E1,1E0,2E0,1.25E2,1.54E2,7.6E1,5E0,2E0,3.8E1,2.8E1,1.15E2,1.3E1,3E0,3E0,4E0,3E0,2E0,2E0,1E0,1E1,1.1E1,1E0,1E0,1E0,1E0,1.5E1,4E0,2E0,2E0,1.98E2,2.02E2,1.3E1,7E0,8E0,1.6E1,5.5E1,8E0,4E0,1E1,6E0,3E0,1.9E2,2.5E1,3E0,4E0],"tree_param":{"num_deleted":"0","num_feature":"5","num_nodes":"105","size_leaf_vector":"1"}},{"base_weights":[6.9338535E-3,2.8307118E-2,-3.2361638E-2,6.622978E-2,-4.117262E-2,-4.6989363E-2,3.5250285E-1,-7.502006E-2,1.325309E-1,-5.2521423E-2,3.901084E-1,-1.6440833E-2,-1.796142E-1,-2.0252076E-1,4.623612E-1,-3.1755786E-2,-4.1975358E-1,1.1227612E0,1.1159431E-1,-3.906768E-1,-2.3136016E-2,-2.140304E-2,6.9201887E-1,-2.9651982E-1,-5.6657154E-2,-1.4596747E-1,9.743876E-2,5.7488453E-1,7.732825E-2,-1.1608592E-1,2.7684307E-1,-1.118764E-1,-5.474576E-1,3.0341592E-1,6.213267E-1,2.1951136E-1,-9.48489E-2,-1.0676716E-2,-7.192984E-1,-5.966595E-2,2.3771815E-1,8.3468633E-4,-1.5936647E-1,-6.8443775E-2,3.7985227E-1,6.9601904E-3,-3.9253876E-1,2.2469598E-1,-2.5844193E-1,6.539886E-1,9.3208075E-2,6.15106E-2,-5.8573484E-3,-8.205284E-3,-1.3331454E-1,4.766369E-2,3.212449E-1,-1.0979919E-1,3.413868E-2,-4.668086E-2,-1.9953269E-1,-1.3326451E-1,3.5973555E-1,5.5810373E-2,4.5529786E-1,3.4854746E-1,-3.8588602E-2,-6.6714965E-2,1.722556E-1,-2.9093802E-1,-5.4577123E-2,-9.050195E-3,-1.7658904E-1,4.7363022E-1,3.767703E-2,-7.5204214E-3,3.0605098E-2,-9.830601E-2,7.81722E-3,-3.4875553E-2,3.8753375E-2,-1.6859102E-1,-6.358563E-2,3.2213968E-1,7.0570055E-3,-1.5299019E-1,-2.2920152E-2,2.2207308E-1,9.5394485E-2,4.0502824E-2,1.4408112E-3,-7.4850083E-3,2.6470663E-3],"categories":[],"categories_nodes":[],"categories_segments":[],"categories_sizes":[],"default_left":[0,0,0,0,0,0,0,0,0,0,0,0,0,0,0,0,0,0,0,0,0,0,0,0,0,0,0,0,0,0,0,0,0,0,0,0,0,0,0,0,0,0,0,0,0,0,0,0,0,0,0,0,0,0,0,0,0,0,0,0,0,0,0,0,0,0,0,0,0,0,0,0,0,0,0,0,0,0,0,0,0,0,0,0,0,0,0,0,0,0,0,0,0],"id":16,"left_children":[1,3,5,7,9,11,13,15,17,19,-1,21,23,25,27,29,31,33,35,37,39,41,43,45,47,-1,-1,49,51,53,55,57,59,61,-1,63,65,67,69,71,73,75,77,-1,-1,79,81,83,85,87,89,-1,91,-1,-1,-1,-1,-1,-1,-1,-1,-1,-1,-1,-1,-1,-1,-1,-1,-1,-1,-1,-1,-1,-1,-1,-1,-1,-1,-1,-1,-1,-1,-1,-1,-1,-1,-1,-1,-1,-1,-1,-1],"loss_changes":[1.2943203E0,2.6323142E0,3.0734866E0,6.0597467E0,5.4426517E0,2.1200297E0,1.3131173E0,3.0740023E0,8.996804E0,3.4787896E0,0E0,1.5159401E0,1.3918881E0,7.5714284E-1,6.920736E-1,4.8466115E0,8.4304667E-1,6.36467E0,9.645237E0,3.4888554E0,3.1015747E0,1.3040302E0,1.8738251E0,1.4597235E0,2.839937E0,0E0,0E0,4.3437672E-1,5.4317914E-2,4.241019E0,3.576284E0,5.0043267E-1,6.341429E-1,4.5505967E0,0E0,1.2059685E1,6.4745154E0,1.8611563E0,1.8427167E0,4.429303E0,5.816491E0,9.6442795E-1,1.8499628E0,0E0,0E0,2.1078017E-1,1.0435762E0,3.561882E0,1.2888913E0,8.342075E-2,1.0437975E-2,0E0,1.341339E-3,0E0,0E0,0E0,0E0,0E0,0E0,0E0,0E0,0E0,0E0,0E0,0E0,0E0,0E0,0E0,0E0,0E0,0E0,0E0,0E0,0E0,0E0,0E0,0E0,0E0,0E0,0E0,0E0,0E0,0E0,0E0,0E0,0E0,0E0,0E0,0E0,0E0,0E0,0E0,0E0],"parents":[2147483647,0,0,1,1,2,2,3,3,4,4,5,5,6,6,7,7,8,8,9,9,11,11,12,12,13,13,14,14,15,15,16,16,17,17,18,18,19,19,20,20,21,21,22,22,23,23,24,24,27,27,28,28,29,29,30,30,31,31,32,32,33,33,35,35,36,36,37,37,38,38,39,39,40,40,41,41,42,42,45,45,46,46,47,47,48,48,49,49,50,50,52,52],"right_children":[2,4,6,8,10,12,14,16,18,20,-1,22,24,26,28,30,32,34,36,38,40,42,44,46,48,-1,-1,50,52,54,56,58,60,62,-1,64,66,68,70,72,74,76,78,-1,-1,80,82,84,86,88,90,-1,92,-1,-1,-1,-1,-1,-1,-1,-1,-1,-1,-1,-1,-1,-1,-1,-1,-1,-1,-1,-1,-1,-1,-1,-1,-1,-1,-1,-1,-1,-1,-1,-1,-1,-1,-1,-1,-1,-1,-1,-1],"split_conditions":[2.5364236E2,1.2414416E1,1.8764418E1,1.20695206E2,2.5248976E2,2.6000001E0,2.5926828E2,2.259699E1,1.2606051E2,1.3058166E1,3.901084E-1,2.59E0,4.449833E0,2.8899999E0,3.190297E2,2.3000002E0,-2.0897498E0,1.758481E1,2.1000001E0,1.7566667E0,4.6366663E0,1.4208165E1,9.089417E0,-1.896E0,8.96025E0,-1.4596747E-1,9.743876E-2,1.9681828E1,1.0086427E1,8.461081E1,9.224834E0,2.3143827E1,9.866667E-1,4.9060836E0,6.213267E-1,1.9000001E0,1.1298495E1,2.2450264E1,4.5833335E0,3.78E0,4.72E0,1.87E0,4E-1,-6.8443775E-2,3.7985227E-1,1.433234E1,1.8014393E1,1.4512064E1,2.7218826E2,2.7935843E2,7.4E-1,6.15106E-2,3.2118436E2,-8.205284E-3,-1.3331454E-1,4.766369E-2,3.212449E-1,-1.0979919E-1,3.413868E-2,-4.668086E-2,-1.9953269E-1,-1.3326451E-1,3.5973555E-1,5.5810373E-2,4.5529786E-1,3.4854746E-1,-3.8588602E-2,-6.6714965E-2,1.722556E-1,-2.9093802E-1,-5.4577123E-2,-9.050195E-3,-1.7658904E-1,4.7363022E-1,3.767703E-2,-7.5204214E-3,3.0605098E-2,-9.830601E-2,7.81722E-3,-3.4875553E-2,3.8753375E-2,-1.6859102E-1,-6.358563E-2,3.2213968E-1,7.0570055E-3,-1.5299019E-1,-2.2920152E-2,2.2207308E-1,9.5394485E-2,4.0502824E-2,1.4408112E-3,-7.4850083E-3,2.6470663E-3],"split_indices":[4,1,1,4,4,0,4,3,4,1,0,0,1,0,4,2,1,3,2,0,0,1,1,1,1,0,0,3,3,4,1,3,0,1,0,2,3,3,0,0,0,0,2,0,0,3,3,3,4,4,0,0,4,0,0,0,0,0,0,0,0,0,0,0,0,0,0,0,0,0,0,0,0,0,0,0,0,0,0,0,0,0,0,0,0,0,0,0,0,0,0,0,0],"split_type":[0,0,0,0,0,0,0,0,0,0,0,0,0,0,0,0,0,0,0,0,0,0,0,0,0,0,0,0,0,0,0,0,0,0,0,0,0,0,0,0,0,0,0,0,0,0,0,0,0,0,0,0,0,0,0,0,0,0,0,0,0,0,0,0,0,0,0,0,0,0,0,0,0,0,0,0,0,0,0,0,0,0,0,0,0,0,0,0,0,0,0,0,0],"sum_hessian":[1.539E3,9.97E2,5.42E2,6.45E2,3.52E2,5.23E2,1.9E1,2.06E2,4.39E2,3.5E2,2E0,4.26E2,9.7E1,3E0,1.6E1,1.84E2,2.2E1,8E0,4.31E2,2.7E1,3.23E2,4.24E2,2E0,4.9E1,4.8E1,2E0,1E0,1.2E1,4E0,1.45E2,3.9E1,7E0,1.5E1,5E0,3E0,2.83E2,1.48E2,1.3E1,1.4E1,2.84E2,3.9E1,3.66E2,5.8E1,1E0,1E0,1.2E1,3.7E1,2E1,2.8E1,1E1,2E0,1E0,3E0,1.15E2,3E1,3.5E1,4E0,3E0,4E0,4E0,1.1E1,3E0,2E0,2.77E2,6E0,3E0,1.45E2,1E1,3E0,9E0,5E0,2.7E2,1.4E1,2E0,3.7E1,2.92E2,7.4E1,3E1,2.8E1,6E0,6E0,1.8E1,1.9E1,3E0,1.7E1,1.1E1,1.7E1,7E0,3E0,1E0,1E0,1E0,2E0],"tree_param":{"num_deleted":"0","num_feature":"5","num_nodes":"93","size_leaf_vector":"1"}},{"base_weights":[6.533393E-3,4.609595E-2,-1.8837418E-2,2.076674E-2,5.119737E-1,-2.1470726E-2,6.020661E-1,3.2876886E-2,-3.3343259E-1,-7.293228E-2,9.384576E-1,-1.6766876E-1,-8.355937E-3,-3.833853E-2,2.6638547E-1,1.0866457E-2,2.3237394E-1,5.005924E-1,-4.609998E-1,5.0670105E-1,-4.512509E-1,8.095735E-1,5.497814E-1,-1.01768434E-1,-8.121336E-1,1.563429E-1,-1.7003484E-2,3.4384374E-2,-3.4604606E-1,1.3812557E-2,1.0144012E0,1.9622112E-2,2.0564447E-1,-7.1720946E-1,1.2825279E-1,1.5150648E-1,2.4341805E-1,-5.5122054E-1,5.2275933E-2,-1.9247146E-1,8.1323826E-1,-2.9528381E-2,-5.394799E-1,-2.8970165E-2,-2.7459005E-1,-5.5119056E-1,3.3381313E-1,-1.21125646E-1,-2.1674111E-3,4.7787502E-3,3.758367E-1,-2.662169E-1,-3.575115E-2,1.0525777E-1,-1.626407E-1,-1.7087441E-2,6.2857604E-1,-2.344945E-1,-1.2572408E-3,-5.066109E-2,2.4208024E-1,1.2857185E-1,-1.0195388E-1,-2.4883637E-1,-1.9686887E-2,-1.515489E-1,1.5874422E-1,-1.17783975E-2,4.283326E-1,1.203113E-1,-3.3063035E-2,-1.9259077E-1,-6.757611E-2,-2.4840386E-1,2.4950817E-1,2.837034E-1,-3.5738714E-2,-5.9783604E-2,1.0363414E-1,3.1125712E-1,-3.7201266E-3],"categories":[],"categories_nodes":[],"categories_segments":[],"categories_sizes":[],"default_left":[0,0,0,0,0,0,0,0,0,0,0,0,0,0,0,0,0,0,0,0,0,0,0,0,0,0,0,0,0,0,0,0,0,0,0,0,0,0,0,0,0,0,0,0,0,0,0,0,0,0,0,0,0,0,0,0,0,0,0,0,0,0,0,0,0,0,0,0,0,0,0,0,0,0,0,0,0,0,0,0,0],"id":17,"left_children":[1,3,5,7,9,11,13,15,17,19,21,23,25,-1,-1,27,29,31,33,35,37,-1,39,41,43,45,47,49,51,53,55,-1,-1,57,59,61,-1,63,-1,65,67,69,71,-1,-1,73,75,77,79,-1,-1,-1,-1,-1,-1,-1,-1,-1,-1,-1,-1,-1,-1,-1,-1,-1,-1,-1,-1,-1,-1,-1,-1,-1,-1,-1,-1,-1,-1,-1,-1],"loss_changes":[1.5466188E0,7.0931573E0,1.5482204E0,2.464502E0,7.801486E0,1.7932445E0,9.481026E-1,2.4300978E0,2.2522635E0,3.2986546E0,1.0830477E1,3.1875746E0,1.2275056E0,0E0,0E0,4.208818E0,9.3866415E0,1.9654793E-1,2.6585114E0,5.2641916E-1,6.588348E-1,0E0,3.2853508E0,2.2291112E0,4.2836952E-1,5.583338E0,1.2633544E0,1.0548422E1,3.7015963E0,8.434955E0,1.4015116E1,0E0,0E0,5.4807806E-1,1.3461785E0,6.9019806E-1,0E0,1.0264468E0,0E0,1.3955263E0,6.3427672E0,2.1980047E0,1.7744231E-1,0E0,0E0,4.1339726E0,9.812535E0,3.788175E0,7.6411505E0,0E0,0E0,0E0,0E0,0E0,0E0,0E0,0E0,0E0,0E0,0E0,0E0,0E0,0E0,0E0,0E0,0E0,0E0,0E0,0E0,0E0,0E0,0E0,0E0,0E0,0E0,0E0,0E0,0E0,0E0,0E0,0E0],"parents":[2147483647,0,0,1,1,2,2,3,3,4,4,5,5,6,6,7,7,8,8,9,9,10,10,11,11,12,12,15,15,16,16,17,17,18,18,19,19,20,20,22,22,23,23,24,24,25,25,26,26,27,27,28,28,29,29,30,30,33,33,34,34,35,35,37,37,39,39,40,40,41,41,42,42,45,45,46,46,47,47,48,48],"right_children":[2,4,6,8,10,12,14,16,18,20,22,24,26,-1,-1,28,30,32,34,36,38,-1,40,42,44,46,48,50,52,54,56,-1,-1,58,60,62,-1,64,-1,66,68,70,72,-1,-1,74,76,78,80,-1,-1,-1,-1,-1,-1,-1,-1,-1,-1,-1,-1,-1,-1,-1,-1,-1,-1,-1,-1,-1,-1,-1,-1,-1,-1,-1,-1,-1,-1,-1,-1],"split_conditions":[1.9885135E2,1.9367131E2,2.2774834E1,1.9071727E2,2E-1,2.1057391E2,1.64E0,1.8024007E2,1.2682018E1,1.4566667E0,1.3910169E1,2.0988875E2,2.1737587E2,-3.833853E-2,2.6638547E-1,1.7270891E2,2.1659916E1,2.14E0,1.5785251E1,1.16E0,1.9296133E1,8.095735E-1,2.2102497E0,1.8276918E1,6.9666666E-1,2.3602502E0,2.3154922E2,1.7108224E2,3.4873335E0,1.7651016E1,3.4165003E0,1.9622112E-2,2.0564447E-1,2.9793125E1,1.7974781E1,1.11E0,2.4341805E-1,1.2414416E1,5.2275933E-2,3.87E0,1.5509274E1,1.4561099E1,1.7447933E1,-2.8970165E-2,-2.7459005E-1,5.226667E0,6.383167E0,3.8E0,2.3302716E2,4.7787502E-3,3.758367E-1,-2.662169E-1,-3.575115E-2,1.0525777E-1,-1.626407E-1,-1.7087441E-2,6.2857604E-1,-2.344945E-1,-1.2572408E-3,-5.066109E-2,2.4208024E-1,1.2857185E-1,-1.0195388E-1,-2.4883637E-1,-1.9686887E-2,-1.515489E-1,1.5874422E-1,-1.17783975E-2,4.283326E-1,1.203113E-1,-3.3063035E-2,-1.9259077E-1,-6.757611E-2,-2.4840386E-1,2.4950817E-1,2.837034E-1,-3.5738714E-2,-5.9783604E-2,1.0363414E-1,3.1125712E-1,-3.7201266E-3],"split_indices":[4,4,1,4,2,4,0,4,3,0,3,4,4,0,0,4,3,0,1,0,3,0,1,1,0,1,4,4,1,3,1,0,0,3,3,0,0,1,0,0,3,3,3,0,0,0,1,0,4,0,0,0,0,0,0,0,0,0,0,0,0,0,0,0,0,0,0,0,0,0,0,0,0,0,0,0,0,0,0,0,0],"split_type":[0,0,0,0,0,0,0,0,0,0,0,0,0,0,0,0,0,0,0,0,0,0,0,0,0,0,0,0,0,0,0,0,0,0,0,0,0,0,0,0,0,0,0,0,0,0,0,0,0,0,0,0,0,0,0,0,0,0,0,0,0,0,0,0,0,0,0,0,0,0,0,0,0,0,0,0,0,0,0,0,0],"sum_hessian":[1.539E3,6.01E2,9.38E2,5.71E2,3E1,9.35E2,3E0,5.53E2,1.8E1,1.3E1,1.7E1,7.6E1,8.59E2,1E0,2E0,4.99E2,5.4E1,2E0,1.6E1,5E0,8E0,2E0,1.5E1,7E1,6E0,4.2E1,8.17E2,4.69E2,3E1,4.3E1,1.1E1,1E0,1E0,1.1E1,5E0,3E0,2E0,7E0,1E0,4E0,1.1E1,6.1E1,9E0,1E0,5E0,8E0,3.4E1,1.01E2,7.16E2,4.63E2,6E0,8E0,2.2E1,2.7E1,1.6E1,6E0,5E0,1E1,1E0,4E0,1E0,2E0,1E0,4E0,3E0,3E0,1E0,5E0,6E0,9E0,5.2E1,6E0,3E0,7E0,1E0,1.4E1,2E1,8.7E1,1.4E1,6E0,7.1E2],"tree_param":{"num_deleted":"0","num_feature":"5","num_nodes":"81","size_leaf_vector":"1"}},{"base_weights":[6.1660996E-3,1.0508396E-2,-1.6122606E-1,-6.0650002E-2,2.0181866E-2,-2.3164076E-1,3.639221E-1,-1.0869019E-1,2.5613996E-1,7.378364E-1,1.5254815E-2,-7.821237E-1,-1.5559162E-1,-1.4585015E-1,1.0927039E0,-4.793809E-2,-4.129435E-1,1.299642E0,-1.7542535E-2,-1.4138387E-1,1.420941E0,3.955512E-2,-2.232971E-2,-1.9925863E-2,-2.9956555E-1,3.5832085E-2,-2.4423113E-1,9.132772E-2,4.003891E-1,-7.815033E-2,7.35083E-1,-2.4893345E-1,-3.7582967E-1,2.2116495E-2,4.7630748E-1,6.029848E-1,-2.3003943E-1,1.9428352E-1,5.9352E-1,-1.19507805E-1,5.668442E-2,-4.0305994E-2,2.342247E-1,-6.9164075E-2,2.3686638E-1,-3.4235683E-1,1.49463415E-2,2.327301E-1,-3.1455148E-2,3.415954E-2,2.5857636E-1,-1.2458693E-1,1.9352446E-1,-1.8534675E-1,1.4295767E-2,2.4530258E-2,-1.0342577E-1,4.3593224E-2,1.4001197E-3,-1.8748302E-2,3.6175363E-2,2.889863E-1,4.7566663E-2,1.6360522E-3,-5.860337E-2,-3.1457485E-3,9.684373E-2,-1.7564422E-1,-5.3586148E-2,6.7452624E-2,-3.419411E-2],"categories":[],"categories_nodes":[],"categories_segments":[],"categories_sizes":[],"default_left":[0,0,0,0,0,0,0,0,0,0,0,0,0,0,0,0,0,0,0,0,0,0,0,0,0,0,0,0,0,0,0,0,0,0,0,0,0,0,0,0,0,0,0,0,0,0,0,0,0,0,0,0,0,0,0,0,0,0,0,0,0,0,0,0,0,0,0,0,0,0,0],"id":18,"left_children":[1,3,5,7,9,11,13,15,17,19,21,23,25,-1,27,29,31,33,35,-1,37,39,41,-1,-1,43,45,-1,-1,47,49,51,-1,-1,-1,-1,53,-1,-1,55,57,59,61,63,65,67,69,-1,-1,-1,-1,-1,-1,-1,-1,-1,-1,-1,-1,-1,-1,-1,-1,-1,-1,-1,-1,-1,-1,-1,-1],"loss_changes":[1.1210682E0,1.0351238E0,1.526447E0,2.7671967E0,4.666768E0,1.3435392E0,3.628885E0,2.882197E0,6.8769164E0,8.103235E0,1.2018932E0,5.5327106E-1,5.517179E-1,0E0,1.6582012E-1,3.1801474E0,3.2693653E0,1.6485825E0,9.079082E0,0E0,1.3053608E0,2.1837585E0,2.39379E0,0E0,0E0,2.4856877E-1,5.646204E-1,0E0,0E0,2.999704E0,2.958281E-1,3.6885717E0,0E0,0E0,0E0,0E0,2.0754414E0,0E0,0E0,3.564414E0,3.3278196E0,1.7353652E0,1.7229636E0,7.638756E-2,8.8420704E-2,5.3235257E-1,2.1505573E-1,0E0,0E0,0E0,0E0,0E0,0E0,0E0,0E0,0E0,0E0,0E0,0E0,0E0,0E0,0E0,0E0,0E0,0E0,0E0,0E0,0E0,0E0,0E0,0E0],"parents":[2147483647,0,0,1,1,2,2,3,3,4,4,5,5,6,6,7,7,8,8,9,9,10,10,11,11,12,12,14,14,15,15,16,16,17,17,18,18,20,20,21,21,22,22,25,25,26,26,29,29,30,30,31,31,36,36,39,39,40,40,41,41,42,42,43,43,44,44,45,45,46,46],"right_children":[2,4,6,8,10,12,14,16,18,20,22,24,26,-1,28,30,32,34,36,-1,38,40,42,-1,-1,44,46,-1,-1,48,50,52,-1,-1,-1,-1,54,-1,-1,56,58,60,62,64,66,68,70,-1,-1,-1,-1,-1,-1,-1,-1,-1,-1,-1,-1,-1,-1,-1,-1,-1,-1,-1,-1,-1,-1,-1,-1],"split_conditions":[3.036403E1,1.2074766E1,9.4E0,2.3000002E0,1.2181625E1,1.772819E2,1.21E0,3.4733334E0,3E0,1.1920013E2,2.5006189E2,8.266667E-1,3.0060833E0,-1.4585015E-1,1.5266666E0,3.3433335E0,1.7364416E1,-1.1522499E0,-3.3141664E-1,-1.4138387E-1,2.3766668E0,-5.5224997E-1,1.7178999E1,-1.9925863E-2,-2.9956555E-1,1.9644169E0,1.9000002E0,9.132772E-2,4.003891E-1,7.42159E0,-2.1730833E0,1.0000001E0,-3.7582967E-1,2.2116495E-2,4.7630748E-1,6.029848E-1,1.4368585E1,1.9428352E-1,5.9352E-1,7.3901115E1,6.383167E0,3.3826105E2,1.7295666E1,5.6649995E-1,9.6666664E-1,2.4113791E2,9.0000004E-1,2.327301E-1,-3.1455148E-2,3.415954E-2,2.5857636E-1,-1.2458693E-1,1.9352446E-1,-1.8534675E-1,1.4295767E-2,2.4530258E-2,-1.0342577E-1,4.3593224E-2,1.4001197E-3,-1.8748302E-2,3.6175363E-2,2.889863E-1,4.7566663E-2,1.6360522E-3,-5.860337E-2,-3.1457485E-3,9.684373E-2,-1.7564422E-1,-5.3586148E-2,6.7452624E-2,-3.419411E-2],"split_indices":[3,3,2,2,3,4,0,0,2,4,4,0,1,0,0,0,1,1,1,0,0,1,1,0,0,1,2,0,0,3,1,2,0,0,0,0,1,0,0,4,1,4,1,1,0,4,0,0,0,0,0,0,0,0,0,0,0,0,0,0,0,0,0,0,0,0,0,0,0,0,0],"split_type":[0,0,0,0,0,0,0,0,0,0,0,0,0,0,0,0,0,0,0,0,0,0,0,0,0,0,0,0,0,0,0,0,0,0,0,0,0,0,0,0,0,0,0,0,0,0,0,0,0,0,0,0,0,0,0,0,0,0,0,0,0,0,0,0,0,0,0,0,0,0,0],"sum_hessian":[1.539E3,1.501E3,3.8E1,1.79E2,1.322E3,3.4E1,4E0,1.56E2,2.3E1,8E0,1.314E3,3E0,3.1E1,2E0,2E0,1.31E2,2.5E1,4E0,1.9E1,3E0,5E0,7.98E2,5.16E2,1E0,2E0,1E1,2.1E1,1E0,1E0,1.27E2,4E0,2.2E1,3E0,1E0,3E0,1E0,1.8E1,3E0,2E0,7.7E1,7.21E2,4.83E2,3.3E1,7E0,3E0,1.5E1,6E0,3E0,1.24E2,1E0,3E0,1.9E1,3E0,7E0,1.1E1,4.1E1,3.6E1,2.66E2,4.55E2,4.25E2,5.8E1,2E0,3.1E1,5E0,2E0,1E0,2E0,5E0,1E1,2E0,4E0],"tree_param":{"num_deleted":"0","num_feature":"5","num_nodes":"71","size_leaf_vector":"1"}},{"base_weights":[5.5832076E-3,7.984966E-3,-2.3912789E-1,-2.247454E-2,2.6271457E-2,6.322732E-1,-5.096676E-1,-7.007033E-3,-4.731057E-1,2.0921944E-1,9.4578596E-4,-9.079829E-2,3.134415E-1,-5.2098095E-2,-6.5640205E-1,1.052171E-2,-1.6655055E-1,-3.0571455E-1,-3.791861E-1,-4.1092E-2,3.684463E-1,-1.987681E-2,2.3732957E-1,1.9414688E-2,-3.3782363E-2,-7.827264E-1,-4.2853393E-2,-4.671382E-3,7.5696963E-1,-9.174675E-2,-3.292087E-1,-4.627287E-1,3.2026362E-1,-1.4966825E-1,2.7901304E-1,2.0815506E0,2.6225713E-1,-6.9691865E-3,-3.7577346E-1,3.9027086E-1,-3.2908106E-1,-2.5432518E-1,-5.888715E-2,-2.1933641E-2,2.6046403E-2,3.1787243E-1,-9.069011E-2,-5.9141897E-2,2.8151235E-1,8.133774E-3,-1.9841295E-1,-3.7764598E-2,2.4880508E-1,-9.745279E-3,-1.2071678E-1,1.3746043E-1,-1.9047301E-2,-1.3638783E-2,1.2693886E0,-1.9444667E-2,1.7174755E-1,-7.264097E-2,2.6491736E-3,-1.7372416E-1,5.3839784E-2,1.5078895E-1,-9.55865E-2,-2.2857971E-1,-6.1163515E-2],"categories":[],"categories_nodes":[],"categories_segments":[],"categories_sizes":[],"default_left":[0,0,0,0,0,0,0,0,0,0,0,0,0,0,0,0,0,0,0,0,0,0,0,0,0,0,0,0,0,0,0,0,0,0,0,0,0,0,0,0,0,0,0,0,0,0,0,0,0,0,0,0,0,0,0,0,0,0,0,0,0,0,0,0,0,0,0,0,0],"id":19,"left_children":[1,3,5,7,9,11,13,15,17,19,21,-1,-1,23,25,27,29,31,-1,33,35,37,39,-1,-1,41,-1,43,45,47,-1,49,51,53,55,57,59,61,63,65,67,-1,-1,-1,-1,-1,-1,-1,-1,-1,-1,-1,-1,-1,-1,-1,-1,-1,-1,-1,-1,-1,-1,-1,-1,-1,-1,-1,-1],"loss_changes":[9.0702415E-1,8.5056853E-1,3.8584778E0,3.9905756E0,4.419952E0,1.8589815E0,7.714977E-1,1.5538639E0,2.1288285E0,4.638471E0,4.134379E0,0E0,0E0,3.556098E-2,4.7206497E-1,5.685303E0,3.7288747E0,1.8190818E0,0E0,1.6405263E0,1.2369929E1,3.543779E0,6.019106E0,0E0,0E0,1.0052204E-1,0E0,3.0871687E0,3.5257144E0,5.830499E0,0E0,1.3802137E0,1.0129073E0,1.0234485E0,7.6556456E-1,1.8482504E1,6.937018E0,